2405 128
1397 -0.09288713 0.11313533 -0.10755991 0.047170475 -0.3141277 -0.27958447 -0.15981774 0.40659308 0.1274434 0.41737667 -0.029418245 0.21195716 0.41376984 0.040670816 0.0051362626 0.25394124 0.08154316 0.22301367 -0.09493406 -0.14506537 0.4368248 -0.27400455 0.19155595 0.05933162 -0.18330668 0.30025238 -0.13782215 -0.35729027 0.13399023 -0.50273186 -0.12545723 0.5724573 -0.3209934 0.28457677 0.17713842 0.44621846 -0.020191476 0.18910667 -0.061623108 0.0018133551 0.20524609 0.40799862 -0.034627065 -0.10466907 -0.09896901 0.7724342 0.20075433 0.17438081 0.05950888 0.091075815 0.5114169 0.22306424 -0.06974831 -0.02331887 -0.18407077 -0.24914521 -0.09077133 -0.083230846 0.020828499 -0.8550632 0.267771 0.0027274298 0.25408575 -0.15531223 0.26164186 -0.08994546 0.1783698 0.13222052 -0.16585548 0.0045627137 0.0055730827 0.30890596 0.34688777 -0.36473295 0.018335994 0.33189303 0.46947068 -0.18345709 -0.41592675 -0.18197474 -0.06562365 -0.1095544 0.15299942 -0.087928124 -0.038141966 0.15074067 0.04558931 0.6039168 0.23418634 0.11066528 0.0990494 -0.36085632 -0.4011021 0.08549278 -0.13250345 -0.34130636 0.12945893 0.2832253 0.18856873 0.06773628 -0.27178296 0.17318316 0.36573654 0.3513493 -0.4239994 -0.025436658 0.05302876 -0.112291686 -0.045655895 0.056206174 -0.40800062 -0.2716399 0.33896193 0.7282682 -0.6493522 0.33247942 -0.15177174 -0.0045741377 0.5642377 0.2122711 -0.03599838 -0.27098748 -0.050963078 -0.19175935 0.100153774 -0.1903237 0.1781993 -0.31386232
1470 -0.04470257 0.04021357 -0.080588736 0.109076716 -0.31256205 -0.14040169 -0.6218652 0.2264231 0.7247418 0.3891186 0.051041834 0.40617678 -0.008208239 0.49875224 0.09301265 0.11990592 -0.120427005 -0.2761484 0.19266097 -0.043142438 0.08238806 -0.067845896 0.55675346 -0.109132536 0.18451554 -0.05600276 0.151016 -0.401151 0.0024678127 -0.31525865 -0.1811407 0.5291804 -0.4744793 0.37300977 0.4601891 0.44372872 0.0127063645 -0.023397349 0.10258273 -0.14741382 0.31261906 0.26739305 -0.045489382 0.06505317 0.24270989 0.7888949 -0.06178486 0.040632237 0.028203184 0.22370882 0.48705083 0.036999 -0.11823411 -0.23240267 -0.13809653 -0.34944746 0.14614251 -0.27307314 0.067350276 -0.5397829 0.39560872 -0.10511537 0.3057519 -0.25249046 0.25599992 -0.29039934 -0.10933615 -0.20256993 -0.16544788 -0.7496048 0.21883157 -0.27826646 0.19466396 -0.32856718 0.13719834 0.3180916 0.65079063 0.11165908 -0.4719457 -0.042624913 0.09766372 0.027186511 -0.11407179 -0.02779477 0.036885336 0.10389311 0.13478902 0.39304394 0.21360573 0.22412431 -0.19048947 -0.1832761 -0.63246685 0.05449837 0.01713251 -0.2686141 -0.0949388 0.1931636 -0.12892377 0.09575322 -0.22352408 0.06734821 0.24375592 0.2297548 0.06765535 0.010526148 0.34178156 -0.018272312 0.3303897 -0.098527044 -0.18305032 -0.04566762 0.33446738 0.53709435 -0.4070123 0.13482942 0.18833469 -0.20900087 0.73876846 0.16612606 0.067714475 -0.14077629 0.07834318 -0.0800038 0.3165582 -0.04370473 -0.16243544 -0.094811305
362 0.1493004 0.15312721 -0.36233222 0.28579378 -0.37742367 -0.47102088 -0.3550509 0.2423385 0.15010928 0.46025681 0.010741961 0.2555736 0.5112012 0.036294866 0.15038523 0.36883488 0.023941752 0.031838104 -0.15721431 0.05474656 0.17496338 0.005234102 0.21685666 0.04479427 -0.32621908 -0.063466184 -0.10674166 -0.18740192 -0.23719367 -0.707258 -0.2295335 0.4386841 -0.43975735 0.53423244 0.045436878 0.53216714 0.12208997 0.094749615 -0.081402995 -0.2300959 0.21833713 0.19440967 -0.38330173 -0.1955049 -0.11546383 0.5703378 -0.032246146 0.11781696 -0.10338442 0.11100558 0.5398227 -0.32421863 -0.09423599 -0.2610838 -0.16300733 -0.02077477 -0.1893754 -0.37957022 0.021730023 -0.8846558 0.1921874 0.19625938 0.116926715 -0.40882695 0.35429797 -0.14985256 0.074146144 -0.343475 -0.080858275 -0.031037297 0.016990853 0.42421848 0.13782349 0.020830264 0.4273662 0.40277308 0.3575822 -0.028811753 -0.49149358 -0.29670715 -0.27783516 -0.25339863 -0.11015221 0.100887224 -0.14093083 0.14853679 -0.024092484 0.5702336 0.06312394 0.122461 -0.063371 0.10332157 -0.70412475 0.048725206 -0.33504066 -0.40782344 -0.2030399 0.20401189 0.12826331 0.1539732 -0.24846107 0.47248006 0.36943913 0.5477505 -0.5611191 -0.26870435 -0.2899183 -0.23304212 -0.30137193 0.15481375 -0.5270909 -0.2766145 0.47475058 0.2805541 -0.8045159 0.27498314 -0.1514938 0.29789913 0.47260126 0.05647134 0.12970525 -0.041071124 0.08130779 -0.41157225 0.19494899 -0.17457864 0.18654 -0.36604434
226 0.19470894 -0.0149398595 -0.19345288 0.22490607 -0.50575984 -0.45747527 -0.2614141 -0.24573487 0.06144355 0.10238095 -0.029800702 0.0897615 0.18500854 0.3133968 0.16206184 0.3045954 -0.24876472 -0.0380927 -0.17085108 -0.22477357 0.02150594 0.107972175 -0.29339013 -0.011857224 -0.036068004 0.19654606 0.22660533 -0.14990391 0.24199831 -0.27815312 -0.18635006 0.04674956 -0.15165174 0.2912755 -0.070743345 0.087415144 -0.12878907 -0.15257524 -0.24324541 -0.20966491 0.18456692 0.45049146 0.13435777 0.4470804 -0.09572828 0.31910536 0.11056697 0.11461731 0.14900835 -0.21004069 0.59658885 0.12548655 0.14100142 0.04742081 -0.30602753 0.0005475189 0.016118096 0.1918856 -0.08557031 -0.57603997 -0.32835674 -0.3036661 -0.4312886 0.12328069 0.06317851 -0.12748276 -0.33896074 -0.17150767 0.019332869 0.0012410303 -0.016386246 -0.08483029 -0.06872223 -0.3778378 0.052319203 0.07880003 0.4509046 -0.041382376 -0.19409142 -0.30586234 0.3262008 0.14664373 -0.16563368 -0.09391476 0.61064243 -0.07899651 -0.1716764 0.18573536 -0.024898909 -0.0006657829 0.08833223 -0.270807 -0.2800869 0.060495645 -0.124463454 -0.12786771 0.07429478 0.014333813 -0.20020719 0.26071754 0.055243433 0.16473973 0.4858193 0.11708334 -0.014086871 -0.12839557 0.15345788 0.09053765 0.2428174 -0.0076954644 -0.17109518 -0.28112215 0.33541423 0.12119109 -0.022563346 0.28324395 -0.045641582 0.020300373 0.05155734 -0.11661599 -0.1678747 -0.021953342 -0.14437243 -0.14134607 0.11186255 0.017071752 -0.15282531 0.32038543
750 -0.23685429 -0.14132461 -0.16915098 0.1252845 -0.2178399 -0.18040252 -0.24153192 0.009535739 0.5757373 0.60251725 -0.2041769 0.35638505 0.107780255 0.3290756 0.23060985 0.11286133 0.27505094 -0.15852141 0.060417313 -0.1557053 0.15699317 -0.39658892 0.33589733 -0.20188615 -0.28054285 0.23646978 0.1237264 -0.6163326 0.06134799 -0.1849155 -0.036145072 0.43069658 -0.37939954 0.3446781 0.009569968 0.430581 0.27962694 -0.108955435 0.047725376 -0.1690754 0.21468599 0.36520317 -0.21116963 0.039915673 0.31347737 0.42440993 0.1315277 -0.10533428 -0.1948263 0.07976052 0.08350175 0.03391151 0.08003652 -0.103444345 -0.26558748 -0.40310928 0.23791544 -0.21025553 0.06663409 -0.5961983 0.2516228 0.27041432 0.10113663 0.12347713 0.14583057 -0.4907089 -0.023254266 -0.11267522 -0.30862355 -0.47336861 0.06239009 0.17413026 0.3434676 -0.16178979 0.09840111 0.19177198 0.2712817 -0.010971154 -0.5874391 -0.09405963 0.06454626 0.03613704 0.05406483 0.122181475 -0.23354319 0.35896063 0.40100732 0.5374875 0.13647981 -0.029716142 -0.18730265 -0.4065266 -0.52454835 -0.27913022 -0.03451888 -0.15968975 -0.13098763 0.045927677 0.09279901 0.14071082 -0.08879617 0.3020488 0.31585473 0.41251463 -0.23440452 0.1911901 -0.034782015 -0.42408088 0.33644336 -0.11293287 -0.2704814 -0.04685939 0.28306 0.49664918 -0.6644313 0.45873523 0.21258539 -0.030280868 0.47852215 0.41705692 -0.32194313 0.22353539 -0.025701744 -0.12666708 0.08559033 8.280354e-05 0.109615475 -0.14988852
489 -0.01296081 -0.2577845 0.0583742 -0.21938507 0.02383679 -0.2546835 0.06173152 -0.26497683 -0.21134992 0.17389558 -0.07231401 -0.15470684 0.23614648 -0.28958088 0.17720565 0.17189188 -0.041252993 0.19588575 -0.5422298 0.0786221 0.2212672 -0.4642179 0.18794285 0.21843526 -0.49343148 -0.37785667 0.16912407 0.061610322 -0.12217883 -0.35237405 0.20831612 -0.065384105 -0.4595631 -0.058617316 -0.07448668 0.36892456 -0.005565805 0.08333202 0.08233335 -0.33690423 0.18385604 0.11048612 -0.08902246 -0.14696924 -0.4612528 0.43322343 0.068136804 0.1300057 -0.38232657 0.06678581 0.3258469 0.05040703 0.06852935 -0.2855074 -0.19323902 -0.1144384 0.40892467 -0.20306863 0.10722037 -0.21076986 0.0437708 0.43339995 0.09607396 -0.09698546 0.12642294 -0.24184436 -0.13699587 0.050253246 0.27876335 -0.42817774 -0.16315334 0.01690575 0.2274378 -0.07786199 -0.11861301 0.024152879 0.0160286 -0.21728568 -0.11658724 0.17137349 -0.06278877 -0.118926525 -0.33495775 0.114872105 0.113484345 0.11483001 -0.274878 -0.08245638 -0.16147426 0.0074629607 -0.15451422 -0.2713978 -0.32805663 0.17246722 0.024160031 -0.2057515 0.0062412466 0.20312972 -0.11558814 -0.056185953 -0.36258098 -0.47632006 0.25095 -0.07685671 -0.34247813 -0.18056485 -0.2408734 -0.1885017 -0.049765464 0.046573997 0.0011883246 -0.020494198 -0.35352746 -0.196848 0.026385432 -0.15727559 0.0031687585 -0.118279085 0.53410923 0.013374398 0.18638168 0.10053314 -0.11044048 -0.42007798 0.060025077 -0.06183785 -0.22435084 0.15385833
1462 0.3396563 0.20985773 -0.011425462 0.28356332 -0.696563 -0.5374473 -0.3242378 -0.21657105 -0.07740409 0.1822057 0.057154655 0.22371067 0.24694702 0.22285737 -0.0019940827 0.59833395 -0.034528416 0.33695412 -0.18845001 -0.35247844 0.39469233 0.09795857 -0.24833328 0.034146644 -0.23881195 0.14465727 -0.43514884 -0.14269082 0.13081165 -0.23554032 0.12442031 0.49855685 -0.31286666 0.032537993 0.28711534 0.14572176 0.103696905 -0.16782606 0.25290427 -0.020816805 0.1785033 -0.048437398 -0.09695859 0.06270376 -0.024428511 0.17055672 -0.10532561 0.12654695 0.0461292 -0.11925306 0.851596 0.2255586 0.1398577 -0.059062034 0.10323605 -0.01594378 -0.026506841 -0.100996785 -0.07921093 -0.7931953 -0.1559593 -0.1528685 -0.06276847 -0.058726016 0.43088076 -0.12122779 -0.20078523 0.1998231 0.097880855 -0.035640292 -0.12449489 0.24953635 0.3126245 -0.097002 0.07725844 0.097713836 -0.021338258 -0.0151236355 -0.09037744 -0.31781265 0.41511822 0.42930466 0.34180832 0.20784128 0.70328736 0.227515 -0.07867024 0.17799169 0.07917955 0.014344303 0.23096128 -0.22153544 -0.29092696 0.0362476 0.041336857 -0.26484114 0.12668282 0.15565169 -0.04440673 0.09181535 -0.44944274 0.35150155 0.68085086 -0.059449073 -0.5437378 -0.24435633 0.06873357 -0.07277593 0.11148231 0.033017173 -0.22268003 -0.11980257 0.31538472 0.21861139 -0.23403266 0.45826992 -0.15910617 0.2193048 0.2129775 -0.04204126 -0.43148294 -0.004545099 -0.09736992 -0.44055244 0.09082065 -0.07512414 0.048016038 0.34584323
1713 -0.027098566 -0.15630017 0.020966223 0.33487102 -0.12476487 -0.038214702 0.40111753 0.091435544 -0.18118815 -0.09619565 -0.15325621 -0.05018029 0.24369861 0.39498243 0.26643267 -0.3053305 -0.00074222725 -0.17894368 -0.02119298 -0.12221433 -0.021277627 0.116003424 -0.041162122 0.14450651 -0.43231103 -0.58793867 0.056124453 0.0317431 0.02903953 0.4996424 0.06742411 0.11997164 -0.013122642 -0.032501016 -0.28554952 -0.16888699 -0.0888647 -0.1879083 -0.094201 0.22295846 0.29207438 -0.24339417 0.05215768 -0.037893943 -0.09259471 0.14263962 -0.30574325 -0.22601748 -0.3621036 0.4045644 -0.23648275 0.053125218 -0.22750577 0.029955076 -0.0064209774 0.064501144 0.12096554 -0.6112745 0.22862309 -0.31324795 -0.08508538 -0.15234359 -0.24020937 -0.05004336 0.15565394 -0.4255559 -0.13640012 -0.34445912 -0.12859094 -0.38188973 -0.14279969 0.010435283 -0.30398083 0.07065528 0.22995648 0.08168775 0.24941161 -0.2956115 -0.30241242 0.2264634 0.06857951 -0.35297483 0.27316725 -0.052416246 0.027591718 0.017833944 -0.13597515 0.22056891 0.133661 -0.44655523 0.29480806 -0.023544405 -0.2621559 0.2848413 -0.2917858 0.23056163 -0.047047876 -0.22878061 -0.21455835 -0.33967167 -0.055270977 0.31454605 0.019137178 -0.1686518 -0.49561304 -0.24740663 -0.24515729 0.20182285 0.030393748 0.20904537 -0.0688357 -0.08688964 -0.050749376 0.14614934 -0.09679826 0.04498605 0.068309955 -0.2698426 0.19411059 -0.18220864 0.31988046 0.10686424 0.034752216 -0.3923891 0.04079753 -0.08434556 -0.020496406 0.27929044
393 -0.28149962 -0.19938274 -0.09714915 0.32614425 0.001330685 0.16942082 0.12081944 -0.028241675 -0.13215642 -0.34462023 0.059085175 -0.13644113 0.20816758 0.29726437 0.31498936 0.007651336 0.08316259 -0.09843795 -0.026388954 -0.050345477 0.29184985 -0.0514873 -0.26215094 -0.007647478 -0.2997736 -0.188523 0.3082915 -0.23144746 0.29108435 0.24628888 0.15399499 0.15616333 -0.029400926 -0.09238818 0.07979804 -0.105705135 -0.1665837 -0.033705674 -0.037897557 0.12348375 0.29657766 -0.16781573 0.116855174 -0.09160046 -0.4189536 0.16378497 -0.20244819 -0.09842608 -0.013642105 0.45480567 0.008369461 -0.33230788 -0.32055777 0.008412621 -0.12576915 -0.18780513 0.07258438 -0.2813895 0.18870941 -0.178379 -0.18470316 -0.08909744 -0.2352027 -0.05616974 0.16831844 -0.28673324 0.044310037 -0.12718385 0.06273125 -0.17870599 0.05538574 -0.1030861 -0.22594436 0.24687897 0.21807528 0.15313928 0.30687842 0.00896317 -0.37276876 -0.14693882 -0.059814036 -0.23933332 0.24454346 0.047249187 0.012496927 -0.005001806 0.06255219 0.10581613 0.47546718 0.19818932 0.2184863 -0.0936841 -0.43990612 0.025457378 -0.34751746 0.1201116 -0.07506201 0.017176716 -0.060603365 -0.21321176 0.05827055 -0.010156322 0.1942419 -0.06303205 -0.35782042 -0.05280821 0.2213798 -0.104955755 0.061613005 -0.028079906 -0.24018915 -0.2567165 -0.208908 0.3004206 0.048332408 0.004478375 -0.04777168 -0.07781479 -0.08254149 -0.2556031 0.095940866 0.31918895 -0.007041571 -0.21167043 -0.038693752 -0.09565619 -0.074684076 0.22801606
445 0.11421537 -0.059932813 -0.049502507 0.22504482 -0.007775416 -0.17874014 -0.18231726 -0.080765344 0.21682994 0.082407035 -0.32195744 -0.11087165 0.1558876 0.119999 0.28379402 -0.28342342 0.26328537 0.065969445 0.063092075 0.095683925 0.25723293 -0.19978021 -0.029559407 0.36786264 -0.4344713 -0.09754664 0.08688154 0.05916779 0.23885986 0.010708696 -0.08341789 -0.09549297 -0.10314539 -0.06830628 0.074038856 0.012147342 0.03640672 -0.11537568 0.14353637 0.059934087 0.53640246 0.001466518 -0.06074057 0.105733365 -0.05557451 -0.09221221 -0.10738314 0.033899862 0.03880609 0.03244803 -0.37704074 0.099234164 0.004438696 -0.2657979 -0.19489132 -0.4191889 0.1364521 -0.16501994 0.046086665 -0.27083957 -0.2654542 -0.11256818 0.1769148 -0.19674969 0.21691488 -0.25200486 0.20415558 -0.08526821 0.101097114 -0.22596562 0.05852692 0.21931829 -0.19699167 -0.07434396 0.06013302 0.1694569 0.05111365 0.1963175 -0.26916862 0.28553626 -0.04410847 -0.08672715 0.05637139 -0.029414594 0.10534983 0.024632499 0.18135431 0.27846617 0.06677907 -0.14417294 0.15074365 0.12498799 -0.14739512 -0.09294055 -0.24521358 0.3073236 -0.01047423 -0.3021622 0.022884605 0.121727586 -0.2138359 0.020175328 0.3485814 -0.059405703 -0.59282976 0.02988495 0.23510377 -0.2604883 0.46591756 -0.17590699 0.24037807 -0.21604559 0.12862808 -0.3961593 -0.22064175 0.21299359 0.4130027 0.04413368 0.10000206 0.04904903 0.112012304 0.1663471 0.043615617 -0.04052396 0.016254617 -0.118209 0.06712726 0.27637547
696 0.0006082881 0.2508472 -0.025579728 0.627065 -0.23282823 -0.36305055 -0.21363902 -0.12502621 -0.061370816 0.4184373 -0.14386795 -0.1029319 0.12441686 0.29695502 0.15333858 -0.007631181 0.040772513 0.33897114 0.06337653 -0.41969857 0.37661365 -0.15536788 0.04440984 -0.10083752 -0.49113038 -0.21125305 -0.20167628 -0.035818722 0.36686587 -0.06884501 0.28410226 0.25634873 -0.040076036 -0.13468334 0.011123863 0.151599 0.058261435 0.17436007 0.2723734 -0.23283866 -0.28634876 0.20602697 0.23762947 -0.20919925 -0.09233568 0.2992844 -0.10135222 -0.032380167 -0.023232365 0.103686236 -0.1151494 0.28955525 0.100197315 -0.17835653 -0.20899679 -0.04710548 -0.4976324 0.028902583 0.3426335 -0.46393088 -0.16979374 -0.023130357 -0.16882625 -0.22241293 0.19109876 -0.25766933 -0.15096797 -0.37646505 -0.03691816 0.026557406 0.40291047 -0.40659696 -0.0040879734 -0.004419196 -0.4738068 -0.19201498 0.19873743 -0.09195493 0.071706995 0.34473234 0.472607 -0.2403361 0.04521354 0.30639634 0.3480312 -0.0961048 0.1824608 -0.14517847 -0.006623354 0.030496234 0.60497576 -0.16746558 -0.4888292 -0.26722315 0.12627542 0.27279124 -0.06410534 -0.13736685 -0.11231659 -0.3480687 -0.16956389 0.21379781 0.12131443 0.10110882 -0.31013468 -0.39847568 0.23319969 0.23717962 0.14774658 -0.1417624 -0.07952416 0.6014299 0.1998014 -0.32546628 0.09862857 0.19864203 -0.15439615 0.31085557 0.25671002 -0.4187001 0.11584167 0.15667488 0.15556243 -0.1278566 0.079825565 -0.0893571 0.15547122 -0.044412524
1610 0.0019086394 0.34995967 0.07922369 0.7503601 -0.16955535 -0.34578833 -0.04067587 0.057956018 -0.05706202 0.60045654 -0.019829562 -0.1607423 0.3851414 0.48372924 -0.08753495 0.42306024 -0.10471527 0.10378918 -0.03396203 -0.5735616 0.3464048 -0.23323642 0.3818721 -0.4690222 -0.86111873 0.3333327 -0.22289729 -0.054178435 0.057405494 -0.09670187 0.20462209 0.022392262 -0.14238761 -0.25727078 0.016501047 0.21304065 0.21583986 0.32934707 0.107260026 -0.21715635 -0.0755511 0.19224131 0.4529302 -0.6537906 0.031499263 0.34576827 -0.036342144 0.12865113 0.39322373 0.22241874 0.13369004 0.2257672 -0.014666122 -0.14687663 -0.3047785 -0.33507776 -0.35446054 0.05189151 0.4447854 -1.1027118 -0.2612059 -0.04033534 -0.24386461 -0.27706063 0.14622754 -0.12054769 -0.1991459 -0.25415426 -0.18745065 0.39573944 0.06080348 -0.32968825 -0.45669684 -0.07952508 -0.5225401 -0.077956036 0.16422936 -0.15002367 -0.026649632 -0.06664283 0.30047864 -0.2338077 0.088317834 -0.018995306 0.6864509 -0.022989523 0.1791286 0.073578745 -0.09201123 -0.18631345 0.30278897 0.084943384 -0.44530183 -0.42554203 0.13548985 0.232947 -0.21059223 -0.2810883 -0.09437326 -0.5354739 -0.37090796 0.33354563 0.23381251 0.4054257 -0.2743103 -0.46839038 0.013314799 0.187602 0.02657735 -0.01262265 0.121299855 0.44378892 0.22713417 -0.60323405 -0.13118759 0.32493776 -0.26214018 0.28620046 0.40467227 -0.5251268 0.30497286 0.004654204 0.11806313 -0.2979318 0.106632866 -0.09001401 0.06299476 -0.20258693
889 0.07388381 0.5520268 0.11548504 0.20513707 -0.61705726 0.014351261 -0.26541176 0.15817761 -0.018321987 0.34746748 -0.1495864 -0.24282965 0.5939896 0.2298457 0.46840417 -0.20605952 0.07811329 0.1691397 -0.09416126 -0.033841606 0.5388451 -0.06858897 -0.015525702 -0.22708152 -0.301861 -0.068757445 -0.057891075 -0.046420585 -0.25477085 -0.08158353 0.5080511 0.025901036 -0.27443293 -0.15607119 -0.0682361 0.35012954 0.2613266 -0.044823434 0.10675068 -0.10074901 -0.26493073 -0.070171036 0.11213903 -0.38220578 0.054192655 0.05483546 0.007162035 0.095176764 -0.050789405 0.09065076 -0.18178552 0.09983444 -0.4046367 -0.32150126 0.0074893334 0.18463418 -0.520431 0.024626123 0.38385436 -0.9102017 -0.01505761 -0.026304344 -0.25076067 -0.34656036 0.56519395 -0.1207978 -0.40420055 -0.4747001 -0.039798275 -0.1830112 0.34076798 -0.17634039 -0.23125093 0.045574535 -0.35595173 -0.35207745 0.15345348 0.07065041 0.01645251 0.21736942 0.40358904 0.037321925 -0.060736366 0.14348446 0.64656204 -0.36972255 4.2893473e-05 -0.039913066 0.5076821 -0.029825374 0.85577947 -0.033686467 -0.7844237 -0.16582353 0.33471018 0.45830464 -0.5186319 -0.06075282 -0.5186998 -0.5316331 -0.38317245 0.22053327 0.21140595 0.22859113 -0.3868182 0.008415345 0.14448626 0.065710925 0.07440015 -0.006732996 0.048671342 0.7585494 0.019421378 -0.3443424 0.39577898 0.12309209 -0.10869336 0.16149361 0.2700721 -0.43437612 0.36554003 -0.009023117 0.3805427 -0.1668118 -0.19136034 -0.008636142 0.09649427 -0.14124224
1615 -0.24404278 -0.2841402 -0.1229637 0.33589476 0.026740871 -0.11697591 -0.13839479 -0.08121706 0.025886495 -0.05491585 0.11880969 -0.14657801 0.19254416 0.42036322 0.18113412 -0.19848862 0.2714609 0.22840366 -0.05656766 0.064346254 0.5677756 0.035326548 -0.05907993 0.2462743 -0.35197052 -0.05386337 -0.0041440255 0.14323242 0.13823994 0.08442268 0.15030853 0.20795745 -0.19125369 0.08203616 -0.2217591 0.15895166 0.2645237 -0.51390976 0.014970334 0.060977735 0.46614045 0.22787791 -0.013439488 -0.5747676 0.14018403 0.18480131 0.18228759 -0.017483365 0.09817727 -0.1398611 -0.22797263 0.30852863 0.19124132 -0.19816358 -0.2518044 -0.29561713 -0.20686288 -0.20759688 0.18318206 -0.25767356 -0.22366932 -0.20410506 0.23779584 -0.5986963 0.05159013 -0.06723603 -0.20831592 0.05758487 0.08577506 -0.04404375 0.30552283 0.014708358 -0.006380338 0.07004307 -0.4770887 0.12287206 -0.017030323 -0.14783844 -0.52051777 0.27289918 0.29137352 0.20178807 0.2772787 0.39993435 0.5069371 -0.07940288 0.0141591625 -0.10190325 0.22917193 -0.12278971 0.0939316 -0.16422276 -0.26553562 -0.20605691 0.15745972 0.16936374 0.024432654 -0.2574917 -0.24086031 -0.29404336 -0.21102136 0.292409 0.3144074 -0.07248639 -0.5652705 0.033518083 0.11343042 -0.15519744 0.14383735 -0.005425158 0.23862901 0.5230392 0.35412258 0.08075859 0.11291532 0.33131716 -0.2587437 0.04294086 0.17792928 -0.42261648 0.08811176 0.2957035 0.28227916 -0.5921533 0.3376159 -0.41306606 0.29028183 0.1939508
708 -0.14297064 -0.042792674 0.0045414576 0.15229496 -0.096285254 -0.16909714 -0.24959154 -0.1448013 -0.18316807 0.18939416 -0.1323914 -0.11106044 0.13264273 0.029815206 0.26735958 -0.13060178 0.26022473 0.11280726 -0.20930025 -0.1355011 0.119869135 0.3489234 -0.22947173 0.16807199 -0.20008442 -0.3405449 0.08869099 0.27391225 -0.10043066 -0.14535752 0.35717928 0.24940683 -0.16789865 -0.21559897 -0.19777298 -0.17299004 -0.15559085 -0.044247966 0.2710503 -0.32264474 0.29999912 -0.18363938 0.074231744 0.07483886 -0.097426765 0.41856837 0.012722698 -0.061901323 0.013604874 -0.1255652 -0.48216516 0.1759657 -0.056491975 -0.13488373 -0.18994129 -0.02583181 -0.29235253 -0.29078794 0.3093311 0.015303605 -0.4315285 0.21329357 0.07601652 -0.085572325 0.29369825 -0.2637845 -0.09137107 -0.12715468 -0.1080687 -0.35106152 0.04296166 0.021123432 -0.17202516 0.16813889 0.008108964 0.17796402 0.12629527 -0.28107035 -0.20366082 0.015229884 -0.20093729 -0.23228684 0.43044084 0.30228624 0.4913482 0.15119547 0.005277861 0.32870263 0.09749537 0.09378312 0.19351709 0.025133604 -0.5243516 0.2344387 0.003405248 0.15130375 -0.02018087 0.31482026 -0.16261731 0.18343233 0.18984696 0.060064584 0.23633482 -0.24969351 0.018908655 -0.27444962 0.25419274 -0.15538675 0.050508678 -0.08571366 -0.30072927 -0.03414572 -0.4069609 0.2139998 -0.034540966 0.07670802 0.00070660736 0.1833378 -0.036849886 0.12146557 -0.08093174 0.09614687 -0.08599151 -0.30994073 -0.00039815373 0.15256138 0.1931267 -0.2553624
713 -0.16597256 -0.1787568 -0.08867928 0.22552407 0.00016943461 -0.22068112 -0.035664264 0.24368477 -0.16002227 0.28253502 0.108741626 -0.026617298 0.1503251 0.35815454 -0.09657851 -0.18288444 -0.04880909 0.055577323 0.17408748 -0.33789846 0.35596946 0.045933552 -0.048531007 0.18779033 -0.031071309 -0.106170475 -0.10220303 0.160875 0.28904977 -0.1099247 0.28969517 -0.17824459 0.3688066 -0.05650848 -0.21970811 0.20196153 -0.09773541 -0.25269666 0.25246054 -0.06878846 0.2566461 0.0108414 -0.023562193 0.013321559 -0.0069313315 0.22586967 0.052644107 0.14083137 0.044846408 0.14444551 -0.47309154 0.46818712 0.22449505 -0.10222828 0.32304025 -0.28754422 -0.25222692 -0.2514481 0.31087255 -0.00063913123 -0.4001835 0.37260655 0.15535963 -0.2860468 0.23327547 -0.2246307 -0.10350146 -0.1488583 -0.08406716 -0.1450654 0.27099937 -0.16631229 0.11312727 0.0068724104 -0.23590675 0.037516825 0.19641982 -0.5245196 -0.39309457 0.25542745 0.23960353 -0.0826482 0.2490038 0.30897605 0.69444036 -0.08221827 0.12959686 -0.08259789 0.21227679 -0.32024154 0.12728599 -0.077001564 -0.43506 -0.10212024 0.4337852 0.11698098 0.0058831787 -0.3053324 -0.2326374 -0.111630805 -0.2652748 0.21943188 0.49357727 -0.17098315 -0.2833994 -0.2773618 0.19365604 -0.057008296 0.1934667 0.032261476 0.0015702328 0.11361574 0.15196255 -0.08048859 0.10390496 0.2147649 -0.3553243 0.13033663 0.08207737 -0.2232903 -0.2991046 0.2473753 0.018666858 -0.30048132 0.1505419 -0.15786572 0.3777377 0.4778904
718 -0.0643807 -0.012851234 0.026236417 0.27848807 -0.14625278 -0.14336269 0.45118234 -0.23964426 0.05666865 0.1535067 -0.18119651 -0.2893113 0.29407844 0.078053944 0.28412867 0.050895717 0.21281855 -0.20268999 -0.007456915 -0.2421679 0.39516288 -0.2132059 0.0039321748 0.2244072 -0.37257984 -0.14963232 -0.11992943 0.069060706 -0.008159638 -0.237339 0.33875212 0.13915233 -0.19776155 -0.06930751 -0.30183232 0.00645213 -0.07307832 -0.16787514 0.3406137 0.12066558 0.15902692 -0.08448585 0.11026113 -0.25732374 -0.078747556 0.7428103 -0.1819395 0.19563958 -0.09400634 -0.4892243 -0.07110089 0.13599865 -0.16626482 -0.24990882 -0.20831645 -0.31126183 -0.43028575 -0.51287293 -0.25149715 -0.008639074 -0.40389633 0.4232772 -0.1257532 -0.13955778 -0.25879514 -0.6383931 -0.3762068 -0.26366302 -0.1364519 -0.085397966 0.047188558 0.23768848 -0.11458403 -0.08707723 -0.5684662 -0.0018351453 0.21791723 -0.25992104 -0.07923123 0.64096814 -0.14886568 -0.07276625 0.38511664 0.10047934 0.73467976 -0.30355692 0.29832628 0.6555871 -0.10929553 0.08076326 0.335312 -0.120648034 -1.0157776 -0.63347894 0.25222027 0.18638708 -0.07134219 0.07116085 -0.6026415 -0.025812753 -0.35673264 0.06844313 -0.055749398 0.030519601 0.036040403 -0.26119953 0.09613984 0.25581798 -0.14162992 0.6245349 0.23120297 0.32900319 -0.1710591 -0.27248615 -0.008256879 -0.058892976 -0.28790408 0.015705086 0.014793193 -0.035892498 0.20968038 -0.13926755 -0.19587007 -0.41167864 -0.23656018 -0.015617204 0.62576246 0.1704739
1630 -0.25928807 -0.22891684 -0.22321977 0.21835308 -0.09016176 -0.377666 0.038188074 0.096005075 0.12716639 0.38001034 -0.06567407 -0.021606501 0.29277116 0.6770593 0.029068423 -0.05819959 -0.027235646 0.41413197 -0.023404839 -0.08932577 0.47397146 -0.15710424 -0.085687034 0.038517836 -0.22027013 -0.12614752 -0.13803275 0.26632726 0.08503999 -0.043974105 0.29635915 0.14806339 -0.020295948 0.0031665664 -0.29397804 0.3195398 0.064404905 -0.311471 0.013244274 0.053502783 0.18666787 -0.081732355 -0.24389453 -0.45852935 0.15672281 0.074712165 0.06762626 -0.12405363 0.04512805 0.023380267 -0.23633476 0.18638779 0.3196277 -0.29052427 -0.0029666307 -0.2421287 -0.06190658 -0.35297507 0.22838207 0.03838744 -0.30390328 0.007113414 0.10969719 -0.50936633 0.23502336 0.0030825261 -0.18564585 -0.17272206 0.018970538 -0.21422347 0.37782678 -0.11113111 -0.17547236 0.040208623 -0.44594726 0.02867355 -0.065770455 -0.0011713745 -0.3357447 0.46196717 0.02607746 -0.054155253 0.15938196 0.15527016 0.49727863 -0.16828406 0.18920624 -0.24512479 0.16762379 -0.24905756 0.41924846 -0.24977219 -0.5608834 0.01627953 0.08373619 0.026946113 -0.20527978 -0.45950642 -0.28537035 -0.34092948 -0.35119784 0.4378539 0.47193244 -0.21493126 -0.43781385 0.1596447 0.20170645 0.0052921674 0.17113292 0.18505788 0.050489504 0.5589564 0.3422635 0.020461375 0.09215146 0.3135435 -0.18847537 -0.0013372197 0.14659104 -0.602088 -0.19649293 0.299556 0.15259969 -0.46995342 0.19667941 -0.23417978 0.5502436 0.40352982
734 -0.110778995 0.083439164 -0.079144694 0.27501628 0.021717932 -0.2038705 -0.02334634 0.08640493 -0.0015533894 0.29959202 0.044371534 0.13879155 0.2155011 0.18931359 0.08324426 0.10357252 0.1721333 -0.27661204 0.004469873 -0.45084623 0.53807265 -0.09307275 -0.17843814 0.19904697 -0.15894575 -0.049870532 -0.13746905 0.0861762 0.1609987 -0.2202397 0.42017946 -0.015786055 -0.41628927 -0.07362423 -0.14066248 0.039447628 -0.22080553 -0.17512143 0.18092059 -0.19826566 0.256939 -0.15842372 0.4768696 0.036324374 0.09687566 0.33070552 -0.0041415556 0.06559922 -0.16476531 0.15736747 0.11845773 0.36668012 -0.087404184 -0.15388818 -0.11772922 -0.32838848 -0.552679 0.0714175 0.15159062 -0.2519544 -0.40927988 -0.045425367 -0.26887327 0.15183163 -0.09352911 -0.21675141 -0.12724417 -0.4281885 -0.07845101 0.1876375 0.013445407 -0.19370449 -0.04517285 -0.010095101 -0.027053783 0.059280217 0.45529795 -0.43775478 -0.055274162 0.4168892 0.041349065 -0.26115203 0.14784393 0.34622097 0.56418264 -0.025339331 0.16964607 0.1686155 -0.22510315 0.013243209 0.24651712 -0.11259205 -0.42701176 -0.08296953 0.35558793 -0.11376632 0.21814527 -0.1477258 -0.21884528 -0.28273848 -0.23893191 0.061103184 0.28666568 -0.17353669 -0.30783138 -0.40127653 0.26022986 0.065156735 -0.0408273 0.24256788 -0.09035519 0.42874312 0.10956314 -0.07307127 0.021376507 0.14063023 -0.011247012 0.18514396 -0.0047774566 0.045667615 -0.2351378 0.18076432 0.19711798 -0.26949027 0.24580076 0.117414355 0.17642134 0.15887542
776 0.06792146 0.11337214 -0.109920636 0.26212284 -0.2024466 -0.02373762 0.09518962 0.06868239 0.04495155 0.30278555 -0.048166513 0.016842406 0.2982235 0.38889888 0.31073028 -0.006657675 0.007138534 -0.26341018 0.079451054 -0.50193626 0.2287668 -0.041742817 -0.3706159 0.062826864 -0.17503653 -0.30956537 -0.2240301 -0.099656805 0.20100588 -0.15579489 0.1737146 0.06075183 -0.21585466 -0.3574288 -0.3375792 0.03824544 0.009703819 -0.08459628 0.31149346 -0.15814932 0.16968781 -0.33753124 0.12531005 -0.09845056 -0.04006208 0.13318929 0.12666136 -0.11418857 -0.35871926 0.12621313 -0.1308772 0.32360336 -0.0279816 -0.083503515 -0.21111311 -0.32956862 -0.46869457 -0.03989966 0.119339086 -0.01301762 -0.24357025 0.009541868 -0.40054342 -0.23090704 0.014703524 -0.20734408 -0.09961767 -0.29021898 -0.024685645 -0.1976702 0.07279139 -0.2774954 0.02739085 0.02189531 -0.18790725 0.13858265 0.19840927 -0.44273704 -0.2761806 0.5970467 -0.08145453 -0.22699839 0.187595 0.23864111 0.6117275 -0.035501353 -0.058531903 0.33949035 -0.12835912 -0.09627544 0.14098617 -0.10061439 -0.68960744 -0.22237453 0.53075844 0.063951336 0.034144007 -0.1471406 -0.3904651 -0.2016376 -0.31611064 0.116575256 0.28415814 -0.48691213 -0.075053416 -0.51659256 0.262306 0.20499554 -0.034771208 0.26657164 -0.0041944627 0.46655592 -0.052526616 -0.08630145 -0.05490004 0.18674804 -0.12974733 0.31622383 -0.09411456 -0.03359556 0.0049839336 -0.06997964 -0.18203185 -0.07041099 0.07046344 0.10290212 0.2630782 0.18360002
814 -0.040535364 0.075145565 -0.15913634 0.43322712 -0.008435109 -0.10071175 -0.13948886 0.20405845 0.02869791 0.3944455 -0.14510761 0.037631534 0.40207624 0.24153197 0.2124345 -0.14426039 -0.020502206 -0.23370047 0.19734785 -0.3891797 0.5637487 -0.0089887185 -0.13936637 0.107357316 -0.1421875 -0.23571803 -0.13413757 0.20924148 0.090803064 -0.14219242 0.14378303 0.06302911 -0.31243595 -0.15777577 -0.28066504 0.084585436 0.1272637 -0.26054716 0.3302455 -0.2655028 0.090761244 -0.16067651 0.14092319 -0.07796101 -0.22494656 0.22896215 0.099964544 0.22014202 -0.416664 0.22926445 0.06997295 0.34574905 0.007971742 -0.08054571 0.006138636 -0.3154826 -0.45973298 -0.19757244 -0.058878615 -0.3105961 -0.38988048 -0.102143936 -0.20035855 -0.09590083 -0.0066517196 -0.14313565 0.0020824405 -0.4770264 0.039633676 -0.20478912 0.24548236 -0.171783 -0.20617636 -0.041419398 -0.30487308 0.0007309978 0.117302366 -0.63829046 -0.20783353 0.35134855 0.12794124 -0.40585938 0.21348679 0.24614553 0.2878041 -0.29626143 0.13196735 0.13288529 0.011056679 0.008786977 0.08014002 -0.111337036 -0.5033124 -0.039372098 0.33399904 -0.06562385 -0.072961986 -0.09255681 -0.41521844 -0.17262743 -0.23707426 0.08017279 0.15190126 -0.2018292 -0.18056485 -0.6435083 0.024108313 0.064612456 0.054851875 -0.008403869 0.009309266 0.25259778 -0.16158916 -0.06951799 0.10539845 0.10519063 -0.1432098 0.25818336 -0.004193499 -0.046863556 -0.19570328 0.0021241256 -0.12495897 -0.24218757 0.18432932 0.27066448 0.38155833 0.053358216
818 -0.24097954 0.20481919 -0.13134605 -0.049053915 -0.07224149 -0.39385837 -0.26015353 0.1643194 -0.18645245 0.18866427 0.034457788 -0.14400281 0.045890365 0.44653818 0.30281746 -0.058674153 0.083383776 -0.30371788 -0.052176967 -0.60275865 0.53834194 0.017931612 0.060551412 0.05556288 -0.060502402 -0.051571194 -0.22460806 0.39339173 0.22318299 -0.1571871 0.48005742 0.0271526 -0.32666454 -0.22004312 -0.3213972 0.01637543 -0.05227479 -0.11172297 0.28292567 -0.11161841 0.08471254 -0.067228176 0.32948124 -0.08468145 -0.032749694 0.21063586 -0.044715516 0.27290958 -0.19399968 0.12290289 -0.011306394 0.21713337 0.11362369 -0.02978993 -0.11545935 -0.23373668 -0.53155124 -0.1711117 0.25361517 -0.25482115 -0.23380932 -0.06331977 -0.1763505 -0.023159517 0.0807902 0.020453518 -0.1314494 -0.39529172 0.021364778 -0.10863983 0.16096836 -0.17692986 0.03562775 0.14163065 -0.05777794 0.062599905 0.5929155 -0.42447817 -0.050508585 0.87477696 -0.074244976 -0.5840111 -0.049753357 0.0929184 0.3929307 -0.031820733 0.05928573 0.11095649 0.12714534 -0.07409105 0.29261473 0.004429415 -0.58776283 0.03124892 0.3593319 -0.057099454 0.15397398 -0.12346835 -0.34794644 -0.3851498 -0.3420595 0.12051562 0.50622845 -0.32907173 -0.07755894 -0.38949978 0.09518252 0.057968818 0.076070175 -0.19932957 -0.0047758757 0.20894557 0.028778385 -0.17156261 0.040996227 0.020578593 -0.06472736 0.27414545 -0.20167403 0.071602136 0.0481593 0.20662823 -0.04013259 -0.095553726 0.054033186 0.2162681 0.26220447 0.18652615
1401 0.26610294 0.15085697 -0.28523457 0.24535167 -0.15402995 -0.64991003 -0.1749775 -0.31826246 -0.10305099 -0.19310908 -0.20737638 0.122699566 0.111195065 0.32198003 0.05037868 0.17687199 -0.111546524 -0.30291146 -0.2866956 -0.102233656 0.113834344 0.20329468 -0.18167119 -0.14275295 0.09020606 0.21841702 0.10342872 -0.41032243 0.16026692 -0.3142167 -0.054704927 0.28864956 -0.123784676 0.27767897 -0.24008279 0.28028476 -0.011274459 -0.16386291 -0.043926742 -0.19565159 0.29307312 0.19629522 0.26260486 0.49485445 0.20051432 0.26384318 -0.22096334 0.20502569 0.1420797 -0.14889318 0.71610063 0.35252935 0.039811764 -0.12097873 -0.11602444 0.10688568 0.21382712 0.030102119 0.009978991 -0.6952273 -0.23213345 -0.45392787 -0.2366911 -0.04023152 0.18762311 0.0025811717 -0.2794931 -0.37499848 -0.0059559857 0.23474237 -0.0828767 0.088365905 -0.18531463 -0.41331765 -0.120775856 0.177199 0.26990515 0.03526864 -0.2232193 -0.06508941 0.23587576 -0.027272606 -0.06789318 0.09556523 0.40117472 -0.13059068 -0.30782726 0.12625943 0.15961601 -0.22154994 0.2892692 -0.31388912 -0.06611759 -0.1475077 -0.07511847 -0.401933 0.085716866 0.01950853 -0.42001793 0.28062057 -0.1540143 0.053931594 0.60416853 -0.19563282 0.04080753 -0.016318701 0.42783797 0.15034592 0.14257222 0.055771913 0.09233566 -0.56943977 0.0882467 -0.1528212 -0.10785396 0.14384334 -0.40386203 0.001425284 0.010286973 -0.027686764 -0.10105423 0.03158768 -0.039782226 -0.15707733 0.31439474 -0.2602737 -0.018310172 0.33171043
220 0.35240573 -0.40562338 0.025533305 0.38296568 -0.48059958 -0.3442742 -0.47015774 -0.34511968 -0.20339777 -0.16209923 0.26496887 0.014087888 0.010902632 0.094325185 0.30208695 0.043366168 0.16947266 0.10768055 0.1758967 -0.2099113 0.31361705 0.08615526 -0.368226 -0.39817536 0.2867816 -0.08496285 0.12724681 -0.59664106 -0.05822904 -0.24780503 0.04969065 -0.22396645 -0.11793005 -0.00948571 -0.55814946 0.3059812 0.21187003 0.026363323 0.0028310923 0.15842727 0.433736 0.11471322 0.40222684 0.20134386 0.096108064 0.30224624 -0.029795263 0.37877977 0.3286637 0.10093536 0.6093325 -0.07532834 -0.14918405 -0.011705857 -0.3128522 0.106893025 -0.09239237 0.008895791 -0.25655317 -0.43532607 -0.24017547 0.05858629 -0.19539666 0.01960799 -0.114375666 -0.19450156 -0.35141653 -0.31186977 0.22069189 -0.1426461 -0.11698324 0.11573137 -0.4241917 -0.5103437 0.45322177 0.24344277 0.2991896 0.3231783 -0.16409935 -0.024994021 -0.27187705 0.25127402 -0.034748316 -0.026147595 0.65114623 -0.17839125 -0.34548423 0.39112902 -0.34046796 0.10478219 0.4335042 -0.4440179 0.17913906 -0.15413976 -0.28724828 -0.21532187 0.23874468 0.116721116 -0.19059268 0.50368345 -0.09679299 0.37694907 0.7874478 0.18215062 -0.45318407 -0.07369312 0.00887798 -0.17829488 -0.2925755 0.19996274 0.18925722 -0.1495555 -0.059573114 0.11184309 0.011060662 0.53860265 0.28915724 -0.028787611 0.08839497 -0.603279 -0.3523634 -0.4511839 -0.3229025 -0.05472168 -0.010288767 -0.43844253 -0.13901584 0.39724568
1412 0.28720823 -0.077497005 -0.45146665 0.24195614 -0.40151283 -0.16003567 -0.39835766 -0.3410078 -0.08204935 0.3628277 -0.036118556 0.14762916 0.29413438 0.123617694 -0.20478188 0.13377167 -0.1632419 0.040648893 -0.015907675 -0.26007247 0.019978896 0.15174295 -0.04473573 -0.26991528 -0.25603774 -0.199116 -0.03542719 -0.07314984 -0.10656338 -0.05822609 -0.165548 0.055026162 0.092642546 0.2821323 0.0939667 0.06537807 -0.16062032 -0.070626624 0.057773523 -0.01637224 0.3113355 0.20386265 -0.13084348 0.24183139 -0.26898357 0.114522405 -0.2377293 -0.114265025 0.25896305 -0.10378592 0.73820794 0.28142953 -0.128748 -0.1250527 -0.2338464 0.03885074 0.25932074 -0.020197835 -0.052171372 -0.56081843 0.08852474 -0.55884516 -0.18417037 0.036809135 -0.005253798 0.15634167 -0.11283415 -0.025460567 -0.12874773 -0.07544136 -0.23969913 0.027758142 -0.0645288 -0.12445837 -0.047951724 0.044425234 0.5891747 -0.293463 -0.15923907 -0.12537588 0.1387236 0.14814271 0.038301464 0.07245496 0.32637918 0.0038803162 -0.063539326 0.256455 -0.017905079 0.17873862 0.29352054 -0.31412658 -0.23584501 0.1345506 -0.02618082 -0.17138249 -0.19444072 0.07530943 -0.02730047 -0.023546526 -0.495473 0.06601378 0.5619158 0.28426495 -0.020208 -0.295377 -0.019084368 -0.15858573 0.2701789 0.0039100763 -0.10519268 -0.09863268 0.32684737 -0.058259476 0.021812608 0.19440334 -0.3768729 -0.009299014 -0.14708114 -0.14109607 -0.30525658 0.092151515 -0.008574265 -0.23133785 0.36072406 0.12127354 0.28083983 0.45641375
1413 0.32095382 -0.039900266 -0.34439683 0.21234605 -0.4703833 -0.56199837 -0.21142106 -0.07198249 0.10879186 0.07083836 0.0074403426 0.12725239 0.14049885 0.30769664 0.013656686 0.07214297 -0.16199572 -0.0011088653 -0.23662242 -0.053988222 0.073669575 0.122822426 -0.36320332 -0.13974231 -0.044420924 0.5294812 0.22407359 -0.263107 0.22532643 -0.41465282 -0.12213426 0.17301227 -0.16248263 0.21543197 -0.22412115 0.10916505 -0.0032983345 -0.08202316 0.025004702 -0.15510716 0.2210472 0.08488705 0.18802656 0.32103017 0.29991633 0.08288318 -0.29305533 0.17810726 0.25589475 0.011104564 0.6581985 0.2018596 0.12514465 -0.024138365 -0.4563847 0.1092219 0.26109102 0.053878427 -0.26061743 -0.7750275 -0.19908202 -0.33013743 -0.1946794 0.14764301 0.10613158 0.13809037 -0.23944399 -0.31442004 -0.005768463 0.14846437 0.061128844 -0.055931985 -0.2269481 -0.35523182 -0.18181646 0.16332322 0.5446758 -0.03402048 -0.34200016 -0.00041289293 0.19340692 0.06887067 -0.07573091 0.10416074 0.40649882 -0.09057165 -0.5045965 0.18883204 0.022304237 0.06807967 0.22812071 -0.28297055 -0.334689 0.004791865 -0.07272575 -0.19467033 0.13338254 0.057284214 -0.3196041 0.22352776 -0.33999434 -0.008875877 0.4475734 0.028618794 -0.07310684 0.12574671 0.35281983 0.026294556 -0.055131428 0.039989874 0.027802857 -0.25673446 0.16230711 -0.14868468 -0.014008683 0.18594384 -0.26114437 -0.021219485 -0.032314993 -0.24624999 -0.19525976 0.05011609 -0.19870219 -0.342489 -0.053446274 -0.40575093 -0.02470277 0.21710692
228 0.23944037 -0.078965 -0.20809709 0.14263019 -0.014643065 -0.2903965 -0.34095502 -0.0757859 -0.20634773 0.10798195 0.093780346 0.10787778 0.46607327 0.33908543 0.21308805 0.24176756 -0.15981449 0.00283247 -0.18171786 -0.08618472 0.05149812 0.23189858 -0.00030070893 -0.16393517 -0.08948205 0.14567077 -0.16100271 -0.15920809 0.27465665 -0.461879 -0.109881766 -0.078923576 -0.093391225 0.34504148 0.08629949 0.1916666 0.06477245 -0.26505163 -0.1466394 -0.014771355 0.27274117 0.31774038 0.10567754 0.38916698 0.21478589 0.24354666 -0.12383419 -0.12873553 0.11318463 -0.20387107 0.5341955 -0.13838989 0.23668587 -0.3005896 -0.30646953 0.074016556 0.06410212 -0.07560063 -0.11258526 -0.47888237 -0.008195222 -0.25369957 -0.30910066 0.19450513 0.23994672 -0.14446957 -0.26709577 -0.2747396 0.2500808 0.14110032 0.021033 -0.04195147 -0.20311089 -0.282075 0.044924285 0.14207783 0.5294399 -0.16891514 -0.25862578 -0.20250477 0.28626823 0.01687519 -0.03859769 -0.23955293 0.6348316 -0.06566401 -0.4033848 0.07033413 0.05187432 0.20229888 0.20969418 -0.42006367 -0.2112267 -0.03370336 -0.20880051 -0.2880906 0.08899124 -0.04232692 -0.240013 0.27852833 -0.24022356 0.049183976 0.3619021 0.030568033 0.032434672 0.023310013 0.19493543 0.17772219 0.32521513 -0.02547504 0.018094946 -0.19392224 0.058455348 -0.02892211 -0.021761877 0.21584399 -0.14307311 -0.031545963 -0.028320707 -0.2449303 -0.23481756 0.08191387 -0.29764912 -0.31841803 0.10421906 -0.050986968 -0.22482929 0.40824795
233 0.12825775 -0.22561032 -0.016226148 0.20654188 -0.48800036 -0.3038016 -0.25147218 -0.22751886 -0.018849604 0.027795484 -0.10484541 -0.008999063 0.20802107 0.21423778 0.13349286 0.11422262 -0.21661109 -0.1458968 -0.2306624 -0.12657137 0.1481494 0.008019562 -0.051641546 -0.3341066 -0.06737848 0.115753345 0.041987807 -0.36596718 0.51300174 -0.3801571 -0.115792945 0.13827828 -0.19223358 0.563707 -0.1383031 0.16887282 0.13418609 0.095884465 -0.25835922 -0.1579279 0.35246006 0.22416833 0.2724063 0.29670092 0.09242074 0.51742804 -0.04589509 -0.100994304 0.06637919 -0.18164586 0.4973121 0.19583362 0.1889067 0.19477025 -0.23715647 0.15075952 0.042206127 0.21266197 -0.1704259 -0.4997009 -0.3636011 -0.18693064 -0.31038964 0.09492672 0.23928984 0.015117127 -0.2966876 -0.38512498 0.15094097 0.0752262 0.2548921 -0.054053035 -0.30975243 -0.38668418 0.17516194 0.11753953 0.44557536 -0.20909971 -0.29781383 -0.28642747 0.31586832 0.15799408 -0.14144763 -0.05532324 0.50124323 -0.03232706 -0.2029563 0.097673275 -0.03393156 -0.020096743 0.033531345 -0.0755741 -0.122393884 0.12838042 0.013862217 -0.14706133 0.053030208 -0.04636322 -0.13683812 0.25442263 -0.18998277 0.19626695 0.5374262 0.022441447 -0.1060405 0.03723348 0.3964258 -0.09884267 0.16813672 0.09819516 -0.026306948 -0.48010975 0.2761391 -0.036308873 0.02790616 0.29209232 -0.18088329 -0.05050663 -0.009228444 -0.46645516 -0.20253071 0.065111 -0.013537921 -0.18359202 0.0009918072 -0.05786514 -0.11889825 0.44607103
235 0.18712012 -0.17951551 -0.3258417 0.20844248 -0.48749608 -0.27236307 -0.04326939 -0.21588935 0.09675251 0.20566322 0.022977684 0.1902565 0.38790518 0.356914 0.09127785 0.012894046 0.08957509 -0.15971601 -0.06037056 0.06522228 0.055729304 0.08243376 -0.021047896 -0.18427294 -0.04939305 0.21185423 -0.043905642 -0.18900315 0.28083056 -0.275262 -0.07665616 -0.0045529823 -0.25184488 0.42415905 0.11352498 0.010358801 0.14077915 -0.05190845 0.085296996 0.008533321 0.067744225 0.3165359 0.26251742 0.20094307 0.02803271 0.40038976 -0.2131595 -0.1065415 0.291935 -0.4454762 0.32327908 0.011159805 0.10353599 -0.06781294 -0.19173135 -0.07346576 0.097171605 0.08616856 -0.28547937 -0.2637511 -0.3870966 0.05508882 -0.22544912 -0.051033095 0.13050838 0.051400173 -0.31673533 -0.3991859 0.072896704 -0.059284475 -0.06453925 0.1594409 -0.123001404 -0.3179749 -0.07582127 0.036386523 0.5805331 -0.2565133 0.044032816 -0.115966946 0.07206988 0.03854989 -0.27619585 -0.22003622 0.65682894 -0.016943816 -0.33698538 -0.08933403 0.021366598 -0.017122956 0.47168526 -0.31632215 -0.26847678 0.06623247 0.015523118 -0.26893696 0.1199855 -0.15456416 -0.27664214 0.17339914 -0.1766812 0.022342918 0.50726783 0.20444562 0.16578865 -0.11659742 0.37993968 0.1298845 0.07085021 0.061804175 0.23448336 -0.44114897 0.10730914 0.09202631 -0.09278373 0.27897894 0.10397804 -0.048748206 -0.11863552 -0.22255756 0.05039751 0.009980226 -0.035105277 -0.4036076 -0.02227289 -0.020350501 0.11082314 0.3875115
1450 0.38578108 -0.21112862 -0.35495743 0.26531857 -0.2579848 -0.5196865 -0.34804213 -0.089523874 -0.1152557 0.035366815 -0.14550711 0.1541136 0.023074593 0.37873438 -0.10047074 0.07973279 0.002232382 0.053866517 -0.30713704 -0.1832755 0.15171106 0.18378551 -0.38144454 -0.13590278 -0.048846796 0.5522613 0.22309081 -0.11765547 0.1494575 -0.2984844 -0.23529819 0.31261444 0.17986627 0.33320206 -0.15888551 0.20162739 0.13524885 -0.062134504 0.07671954 -0.23692961 0.27347964 0.13937894 0.1242296 0.57412344 0.21874654 0.0347523 -0.03609512 0.25163868 -0.030772876 -0.16776659 0.86577433 0.15212771 0.052195236 -0.14825952 -0.23533233 0.18100035 0.2274206 0.00966624 0.10317267 -0.7278284 -0.0998441 -0.44810778 -0.18768185 -0.085548595 0.17376526 -0.017253308 -0.19099203 -0.33172557 0.14533734 0.25867346 0.12224807 -0.08023407 -0.034812193 -0.25208426 0.19777146 0.1307765 0.62538666 -0.022789145 -0.22314271 -0.08495548 0.30966514 -0.12958002 -0.1305474 -0.017460676 0.51052725 -0.2994129 -0.31112042 0.009776505 0.052621726 -0.04474197 0.3006958 -0.18102786 -0.32269284 -0.15241644 0.12497308 -0.16039403 -0.12931061 -0.05093929 -0.48233354 0.28642327 -0.2656143 -0.13410163 0.43899077 0.001956387 -0.1004986 -0.10147609 0.40795732 0.0015157291 -0.08552067 0.16456626 0.06900142 -0.28268728 0.043847978 -0.19185174 0.1266789 0.3574633 -0.57816595 0.08319194 -0.06742775 -0.29558942 -0.3694956 0.03748097 -0.07940825 -0.17721562 -0.08101157 -0.36204475 0.051046543 0.2711946
236 0.18583252 -0.3161326 -0.45320642 0.17096181 -0.43809623 -0.20916562 -0.26255313 -0.27250946 0.03780193 0.18602449 0.0009062049 0.013394441 0.29377088 0.4044694 0.009288454 0.12760225 -0.029324276 -0.0741992 -0.06723741 -0.07905714 0.19089259 0.032356888 -0.04836096 -0.34117475 -0.16446835 -0.23063469 0.3054315 -0.3322049 0.45241833 -0.11832328 -0.16257787 0.058218382 -0.22752407 0.5365597 -0.080093876 0.09781898 0.03543337 -0.15796009 -0.3695536 0.11941333 0.29355326 0.2048164 0.28043392 0.2918675 0.10429153 0.38431132 0.10092602 -0.025695892 0.3023679 -0.1515308 0.6464722 0.30996978 0.23711069 -0.087970145 -0.3910412 0.19956127 0.22990689 0.19708735 0.018939488 -0.42795718 -0.17284758 -0.1812921 -0.28213495 -0.04593273 0.32039127 -0.14619784 -0.30606654 -0.41993308 0.35183987 0.08276822 0.26192325 0.0057716323 -0.17126904 -0.50343215 0.15118119 0.16928522 0.461642 -0.26105946 -0.28790176 -0.074009165 0.08136397 0.32110664 -0.10645561 -0.033099916 0.50422364 -0.13320053 -0.29881728 0.22321147 -0.08002828 -0.1993505 0.0625666 -0.20822974 -0.11392031 0.16617379 -0.052986972 -0.45436552 0.077071376 0.17294341 -0.19752917 0.45376283 -0.16275075 0.035906274 0.40564102 0.026782783 -0.061944004 0.24082442 0.22279355 -0.1610618 0.24082457 -0.010016033 -0.06120318 -0.30765504 0.14819577 0.06683837 -0.17674343 0.12569702 0.02810263 0.077863395 0.09240275 -0.062219024 -0.24915889 -0.11579392 -0.045595985 -0.14272231 -0.06858356 -0.11266215 -0.26548037 0.26816434
1455 0.35957325 -0.19504872 -0.32849 0.07634271 -0.34258497 -0.6789706 -0.41396344 0.012611989 0.05527134 0.059702724 -0.024525741 -0.14390977 0.012929689 0.44327638 -0.15031604 -0.16457781 -0.11093676 0.1487586 -0.49941504 -0.08805666 0.101509556 0.22787985 -0.3540634 -0.12588887 -0.044138163 0.5347772 0.25232193 -0.33922988 0.06803989 -0.23647964 0.09425996 0.3908767 0.10327383 0.3356697 -0.26044407 0.13499974 0.1961339 -0.14423 0.20396954 -0.4207903 0.23099692 -0.04707151 0.190345 0.6259619 0.07404977 -0.18975829 -0.26953623 0.29623422 0.028864104 -0.2837176 0.67905194 0.15386194 -0.06160501 -0.18101563 -0.2811975 -0.044427954 0.26674905 0.06592748 0.0063352543 -0.65977836 -0.056922276 -0.5483866 0.03903776 0.06458329 -0.06310686 -0.06190563 -0.17888613 -0.38304803 0.17855418 0.3667383 0.18036853 0.088397205 -0.064820245 -0.4235576 -0.10503179 -0.058857262 0.44642577 0.22519875 -0.08681677 -0.06713318 0.32142496 -0.13126765 -0.13083167 0.1031031 0.26029667 -0.06113439 -0.45319617 0.3786267 0.096760176 -0.10446418 0.3037725 -0.2900077 -0.5628962 -0.11746813 0.16505753 -0.2763522 0.16614595 0.0055592046 -0.6265368 0.26286265 -0.08864789 -0.23839256 0.6744207 0.12158413 -0.19395863 -0.02402939 0.27577874 -0.005606104 0.19815549 -0.06728955 -0.010149859 -0.34450608 -0.024310064 -0.18807194 0.12529725 0.34780112 -0.35599574 0.10180486 0.07561818 -0.29596755 -0.096868075 -0.024051763 0.057577334 -0.3239125 -0.24509491 -0.5803401 -0.08150659 0.28330833
1465 0.34038964 0.11388376 -0.04614375 0.2777994 -0.21036234 -0.14348908 -0.23082007 -0.23163743 0.0027966795 0.1643316 0.07973792 -0.018189874 0.43734223 0.51120377 0.12480609 -0.041322 0.15039505 0.031718392 -0.0153119285 -0.23579709 0.04419845 -0.15655114 -0.20031232 -0.120478414 -0.27148083 0.23058058 -0.17184223 -0.27254346 0.16276507 -0.18060939 -0.17654556 0.16236909 -0.078464106 0.15507424 -0.23876567 0.06183214 0.06325498 0.10581547 0.15511909 0.010637659 0.25829798 0.041186977 -0.21486513 0.37301275 -0.11185221 0.23282711 -0.25277022 -0.13834545 0.15474525 -0.06247632 0.73287666 0.09205175 0.06763206 0.028719807 -0.24382304 0.080667295 0.054172207 0.26563185 -0.13203366 -0.59039956 -0.10715609 -0.2914587 -0.34349003 0.08725378 0.36708212 0.012725939 -0.12767862 -0.1462668 0.074946836 0.13538681 -0.21943007 0.01967398 -0.032495633 -0.10734719 0.14604859 0.12771396 0.42686272 -0.40298417 -0.026220048 0.068338215 0.33522502 0.0036295834 0.018549422 0.00032209093 0.60109276 0.062236562 -0.19795616 0.22196898 0.01150585 -0.10254015 0.31539798 -0.21062447 -0.17515826 0.128506 -0.31756553 -0.39532486 0.026086526 0.07393037 -0.17563446 0.089266166 -0.34124094 0.020047436 0.54406166 0.15002638 -0.0606032 -0.42596856 0.0015022422 0.094603516 0.27109697 0.16434893 -0.13729933 0.12855694 0.32730243 0.06571351 0.022298947 0.19907425 -0.27694774 0.0104631465 -0.37762293 -0.13730818 -0.33996162 -0.19022934 -0.051077098 -0.23444568 0.17730989 -0.04762156 0.32898694 0.4135041
1466 0.3865027 -0.11120373 -0.20120606 0.35736412 -0.40654883 -0.35520923 -0.1609364 -0.10671022 0.026462628 0.01453484 0.029270444 -0.20339599 0.36036795 0.26705107 0.043087352 0.35060382 -0.060592663 0.14046751 -0.104855105 -0.24189627 -0.07056287 -0.018720469 -0.3327007 -0.1758713 0.08784026 0.28226647 -0.17615403 -0.21175653 0.12838699 -0.2638044 0.048250645 0.366293 -0.17274494 0.173555 -0.037134685 0.28034446 -0.015233876 -0.09492427 -0.00587208 -0.111256406 0.26898846 0.103276074 0.014265029 0.36177245 0.14921215 0.105488256 0.02015711 0.12511332 0.14341614 -0.011916954 0.58816844 0.1239483 -0.0675147 -0.015148979 -0.28923765 0.11535998 -0.024195664 -0.17783514 -0.10448946 -0.7554243 -0.12133394 -0.3472518 -0.34255886 -0.026821269 0.2597552 0.007450038 -0.19955458 -0.16595966 0.025568973 0.22441407 -0.14653301 -0.0629518 0.09701482 -0.2521683 0.08277119 -0.026672294 0.21116641 -0.09656375 0.08054334 -0.18914977 0.45065406 -0.139653 0.11933721 -0.039483014 0.6008845 0.082321994 -0.05202401 0.04113928 -0.01610857 0.16441998 0.28815585 -0.22636212 -0.25800368 0.074134 0.099354625 -0.40785757 -0.040784065 0.031092543 -0.26731664 0.1878951 -0.33723783 0.14268304 0.5348372 0.060946126 -0.12392679 -0.23098098 0.031982277 -0.0015429033 -0.071220845 -0.20661016 0.0803897 0.014373818 0.119678274 0.072650455 0.079461694 0.26799247 -0.19611919 0.0059393807 -0.091918595 -0.076315284 -0.40060037 -0.081359975 -0.14607964 -0.6250841 0.2928482 -0.11142571 0.27790448 0.26794803
1468 0.2695998 -0.14033404 -0.08626891 0.00060649076 -0.2511093 -0.4508701 -0.1764519 -0.28572255 0.06757373 0.09971635 -0.005778382 0.06992136 0.30789766 0.2409416 0.19581743 0.31178468 0.09136154 -0.13439494 0.077496536 -0.4021605 0.09212447 0.09505134 -0.42846668 -0.26338708 0.015417954 0.010070162 -0.25325096 -0.5420785 0.21089011 -0.28183767 0.09111425 0.271156 0.09229215 0.6070438 -0.22778651 0.09498535 0.04324149 0.070697114 -0.0279745 -0.13860859 0.2051179 0.19324279 0.117678724 0.43065056 0.09889122 0.23061982 -0.18783917 0.028837878 0.36880267 -0.1868002 0.6042719 0.019982614 -0.05969844 0.074616596 -0.4409741 0.060189195 0.14525 0.19792421 0.037586555 -0.7082607 -0.08441973 -0.24409698 -0.21232034 0.16800705 0.20985083 -0.073195934 -0.3360937 -0.08007421 0.17544375 0.2040592 0.103630126 -0.040641163 0.1504102 -0.06502755 0.27993798 0.14361098 0.3469514 0.08779735 -0.3082441 -0.08009895 0.40997937 0.2803379 0.19076847 -0.1425913 0.5223155 -0.12971912 -0.45873985 0.39465538 -0.05069643 0.18033102 0.29509327 -0.37936762 -0.10793392 0.03189521 -0.0011145208 -0.26168397 -0.06581158 0.020242326 -0.29210642 0.04137434 -0.37501618 0.054325916 0.49495456 -0.40457848 -0.15254925 -0.2796284 0.19652358 0.03564025 0.13801405 0.2765383 0.10741755 -0.051165514 0.047294155 0.007982439 -0.18402196 0.36452687 -0.1684663 -0.1737324 -0.09744398 -0.55594033 -0.31181285 -0.057031926 -0.00035673304 -0.2740753 0.21600832 -0.18710604 -0.07884679 0.47397602
243 0.26323196 -0.15461512 -0.18634744 0.24945441 -0.6425056 -0.4052985 -0.22061169 -0.035325006 0.060056318 0.122404136 -0.051455162 0.033206984 0.32682276 0.3278612 0.03068112 0.10241759 -0.048379496 -0.120585956 -0.18525396 -0.05128369 0.034171145 -0.047094498 -0.16672829 -0.34503478 -0.12784861 -0.09154645 0.01931594 -0.21200213 0.38252586 -0.16452238 -0.18596081 0.10179192 -0.2202635 0.27854034 -0.16812128 0.17698222 -0.0642553 -0.008529487 -0.21127188 -0.06743522 0.3573631 0.27048424 0.3597904 0.47616813 0.030361053 0.35529277 -0.002490587 -0.03819628 0.10560862 0.02676629 0.56095934 0.15584403 0.0821396 0.0021936006 -0.37822017 0.19675173 0.30948955 0.062083907 -0.11630472 -0.41795236 -0.30911306 -0.25881305 -0.308644 0.22780357 0.20338085 -0.07237717 -0.2963012 -0.23933704 0.22511975 0.13750027 0.029805912 -0.11673548 -0.30587548 -0.54332566 -0.02927918 0.12372299 0.468764 -0.1645922 -0.37069708 -0.25854263 0.21094418 0.062636346 -0.04243201 -0.0242232 0.48147327 -0.15553355 -0.31522912 0.063714825 -0.02498114 0.025079634 0.103666656 -0.2013608 -0.17706221 0.07195991 -0.10000254 -0.30687252 0.12523718 -0.021058526 -0.28177416 0.25670403 -0.19424348 0.19562064 0.46780446 0.13517162 -0.083982095 0.10933774 0.45501435 -0.0834405 0.24093047 0.18799235 0.044892687 -0.4585204 0.26520905 -0.13471319 -0.046822753 0.28743038 -0.16033596 0.061703864 0.045722626 -0.31803152 -0.17889602 0.06261786 -0.031367816 -0.13917926 0.00044171407 -0.11183591 -0.27588516 0.14724502
245 0.24852067 -0.1561107 0.1512145 0.14983536 -0.30032626 -0.23618639 -0.25756344 -0.13972226 0.0062493016 0.12253451 -0.015856275 0.20288926 0.3313127 0.27905098 0.09115709 -0.03537771 -0.07923462 -0.030600987 -0.15163398 0.06331254 0.07991195 0.056610152 -0.085322 -0.2717006 -0.08357017 0.044937175 -0.01304287 -0.16129097 0.13188982 -0.02503852 -0.02075173 0.03535413 -0.17437933 0.25025904 0.013466332 -0.03635803 -0.16585633 0.025733426 -0.063340336 -0.058693163 0.43102637 0.35880193 0.09126788 0.54237264 -0.1848363 0.4747169 -0.2095278 0.033113226 0.09668647 -0.14118288 0.6679367 0.21632145 0.08506452 0.20979565 -0.52292913 0.32807726 -0.059737846 0.0055580745 -0.16809435 -0.56615514 -0.2762774 -0.21083786 -0.48765785 0.072559215 0.36994576 0.00035243225 -0.15746729 -0.34243387 0.17224711 0.21333414 0.0047113406 0.068066806 -0.23895285 -0.5033312 -0.061773445 0.06663365 0.5716707 0.037763126 -0.17398515 -0.25399068 0.40103406 -0.025742779 0.18097548 0.091777794 0.56231517 -0.05216264 -0.4268375 0.09915661 -0.014440777 0.041974466 0.14391537 -0.045082863 -0.111080915 0.19694652 -0.021262385 -0.24767071 0.115918495 0.13437389 -0.22326593 0.243504 -0.36676738 0.19284752 0.56568056 0.032215726 0.0068909903 0.2803325 0.2883541 0.036968835 0.32548222 0.226046 0.016669696 -0.582912 0.16788404 -0.0952198 -0.12472063 0.17045061 -0.20875819 -0.10083893 -0.034898333 -0.4405885 -0.20563518 0.11360663 0.018532882 -0.18637207 -0.058020957 -0.08169608 0.094349764 0.16593343
1535 0.13589089 -0.20303698 0.03505563 0.17648225 -0.23470446 -0.6344966 -0.051164396 0.032290034 0.119115256 -0.07514485 -0.32385123 -0.23957328 0.28483927 0.5451759 0.48107666 -0.22700563 0.15906113 0.112827964 0.27206737 0.023294717 0.2903511 -0.44901904 -0.2721663 -0.17902686 -0.41516152 0.14284538 0.3394505 0.29040638 -0.21746169 0.07776465 0.549969 0.07464613 0.24563995 -0.44408825 -0.44605252 0.060177393 0.06539453 -0.7137515 -0.30631042 -0.18629287 0.27393544 0.49018595 0.32884905 -0.5473222 0.039782494 -0.30228856 -0.2210347 -0.19185314 -0.20456631 0.072348416 -0.1012818 0.039943535 -0.1715496 -0.08175209 0.114390224 -0.6395356 -0.19511437 0.42108706 0.25969878 -0.6309004 -0.33211467 -0.0040349746 -0.630297 -0.29810566 0.0029363162 -0.31818384 0.1826905 0.37017235 0.06253339 -0.4010871 -0.2472953 0.2713642 0.060027227 -0.25530457 -0.12784079 0.28186557 0.008122848 -0.60951024 -0.17310943 0.3516195 0.5076551 -0.25880563 0.028322639 0.07452254 0.2609013 0.09494804 -0.06335736 0.35488853 -0.20186564 0.05510842 0.25503093 0.22385377 -0.84202296 0.30619168 0.09735995 0.3154268 -0.08422102 -0.4738062 0.3619652 0.32882303 0.07309731 0.21743186 0.29284132 0.307202 -0.21994488 -0.07022465 0.017466662 -0.23594865 0.39517254 -0.20775256 -0.20068459 -0.22844836 -0.39095205 -0.037052266 0.1327713 0.78719795 0.48272535 -0.06983714 0.32343626 0.13528161 -0.107807 0.10694565 0.20529003 0.0026615558 0.11933379 -0.09153841 0.35020378 -0.48620486
780 0.070218064 -0.76329225 -0.0899766 -0.12808585 -0.052501213 -0.8291767 -0.59053755 -0.26435605 -0.1369206 -0.006537131 -0.82814354 -0.45965347 0.7572909 1.181966 1.061437 -0.24519977 -0.33094537 0.42064643 -0.6191184 -0.19771835 0.54047054 -0.35230255 -0.049929738 0.6936083 -0.30436286 0.53911376 0.25286 0.008067083 -0.09189589 0.49785835 1.2105894 -0.08132243 0.92505 -0.6594317 -1.1171443 0.13105853 -0.4508086 -1.0846654 0.6111356 -0.20935561 1.034041 1.2919255 -0.52800834 -0.53660595 1.0290864 -0.6124433 -0.47274506 -0.43811506 0.06963057 -0.38729796 -0.04023218 0.2976383 0.5330465 -0.12978639 -0.61519516 0.2817411 0.021657022 0.6862465 0.71419406 -1.4202765 -0.12774757 0.1368832 -0.85691345 -0.21817814 0.16519304 -1.3997477 -0.16006532 0.2310224 -0.5011805 -1.8641497 -0.59365785 0.29911408 0.14250752 0.19648191 0.27748048 0.2711633 0.0061217495 -0.5214549 -0.89180535 1.2249773 0.36337438 0.5023132 0.13800783 0.8225596 0.83560556 -0.5083646 -0.23975368 0.22120023 -0.75511855 0.5284317 0.21305203 0.014701555 -1.149534 0.7389094 -0.074805014 0.5318204 0.035282493 -0.6048414 -0.39122525 0.39311165 -0.08090514 0.03474596 1.2742732 0.5564918 -0.32628998 -0.1567832 0.74565315 -0.48089892 0.9386493 0.09349568 0.05268479 -1.280393 -0.018648114 0.60816467 1.0798507 1.6734521 0.6224797 -0.36933464 1.2296828 0.6795364 -0.24797307 0.5737259 0.7303224 -0.12779987 0.13300918 -0.6676716 0.036055636 -0.14984171
1550 -0.10096899 -0.066682786 0.19347304 0.06727459 -0.23251809 -0.4223581 0.0865828 0.04931359 -0.027363535 -0.1906732 -0.40647396 -0.3773948 0.3535045 0.70812094 0.36440346 0.0401425 0.26677245 0.15550792 0.014598583 0.3210981 0.5172056 -0.6019391 -0.15371454 -0.09504809 -0.37337238 0.17459682 0.27539402 0.047867443 -0.11469389 0.13575372 0.43159276 0.0062503675 0.14125457 -0.44550928 -0.13550861 0.26423702 0.08581777 -0.5558374 -0.07626924 -0.0022690487 0.49657968 0.31987485 0.19715735 -0.32003438 -0.09214608 -0.34413773 -0.20275915 -0.17269062 -0.13170363 -0.02967929 -0.30635822 0.2335744 -0.038227953 -0.14614011 -0.013068777 -0.69749224 -0.24509685 0.31249416 0.16520114 -0.6262048 -0.21627359 0.06575636 -0.49831766 -0.40809384 0.069227055 -0.56042266 0.04334674 0.16644074 0.092126355 -0.4755802 -0.1595503 0.38020596 -0.16780744 -0.061480112 -0.013789442 0.08415216 -0.012340829 -0.34811407 -0.36493072 0.34653294 0.3633855 -0.32875252 0.22454906 0.07390581 0.100909814 0.21880384 -0.06002815 0.24175669 -0.17116047 -0.06040669 0.3672336 0.11379388 -0.56566805 0.35027978 0.12961887 0.2722348 -0.19554049 -0.5391582 0.055008464 0.18867593 -0.049437206 0.06453341 0.6017122 0.3256949 -0.3123931 0.023861574 0.124459594 -0.40232956 0.6279318 -0.40357757 -0.19408563 -0.1818235 -0.29950088 -0.010789551 0.06402515 0.83271515 0.5509315 -0.27897933 0.6213692 0.025871044 -0.09954654 0.19454473 0.3460496 0.09987521 -0.11695489 -0.2745477 0.49242926 -0.31945089
2273 0.28789473 -0.33449402 -0.4847807 -0.07888714 -0.45034575 -0.4031561 -0.49750552 -0.03477122 0.040629137 0.15188603 -0.0418893 -0.08450801 0.38642162 0.55125535 0.31103635 -0.26925138 0.031380933 -0.20397057 0.57905275 0.10139829 0.0886895 -0.23293324 -0.1302365 -0.060483605 -0.54257745 0.12054829 0.3637878 0.082438 0.00838779 -0.4006815 0.13503654 0.5264842 -0.21836533 0.116811916 -0.3869876 -0.1507443 0.07191455 -0.012582487 -0.17242046 -0.07751984 0.17637953 0.33495453 0.3454579 0.08406396 -0.007348681 0.28760403 -0.44377357 -0.30652425 -0.10492602 0.688795 -0.2167971 -0.16232386 0.15269928 -0.27015588 -0.16405538 -0.35493374 -0.2785356 0.09788402 0.25548184 -0.25351906 -0.34091637 -0.4743638 -0.47245824 -0.036382634 -0.16652288 -0.6343644 0.009272039 -0.3191522 0.20619203 -0.75142896 -0.7150423 0.5968988 0.31641808 -0.21863675 -0.08487437 -0.001292216 0.022680143 -0.7734159 -0.065304294 0.23920487 -0.06190496 0.24494101 0.04961544 0.112276085 -0.022945259 0.15291308 0.44461495 0.18127082 -0.51068735 -0.20619635 0.10422715 -0.058099154 -0.54080987 -0.12831427 0.3782613 0.26851538 -0.07419493 -0.36893168 0.019675659 0.14272673 0.10673819 0.08406783 0.35649723 0.07528007 -0.3217308 -0.24665847 -0.44748 0.010843906 0.2254541 -0.13600528 -0.452934 -0.17430748 0.20709641 -0.05845297 -0.2009802 0.48033065 -0.089045726 -0.11999935 0.4266479 -0.15353909 -0.32122582 0.20183022 -0.3206377 -0.124154106 -0.14392132 0.07049983 -0.14444554 -0.8783222
1616 -0.14022462 -0.34389648 -0.20994514 0.41880992 0.012544054 -0.14034195 -0.1486077 0.0055421153 -0.023573851 0.114394285 -0.23762882 -0.114116564 0.33184376 0.7825733 0.034983326 -0.37261978 0.02476909 0.25279018 -0.12914298 0.09602457 0.45108566 0.10065592 -0.07122407 0.1335379 -0.20252998 -0.09026374 0.07981347 0.21704388 0.31466582 -0.12039687 0.245477 0.27680123 0.0404414 -0.16119024 -0.33873412 0.09220137 0.24079373 -0.2985479 0.01184181 0.0265839 0.309136 -0.09313964 -0.16262718 -0.41412964 0.20825279 0.12335471 0.19958036 -0.08631075 0.0147329625 -0.051449306 -0.29099166 0.28740284 0.2256418 -0.24451523 0.0065832864 -0.43406868 -0.16349818 -0.2754078 -0.009653878 0.02356212 -0.57912266 -0.1429055 0.17774667 -0.3922029 0.37128922 -0.07682771 -0.18387371 -0.06968043 0.21200113 -0.45852754 0.37714866 0.019976353 -0.06818332 -0.03966912 -0.40938058 0.29832333 -0.09073814 -0.10463608 -0.51692456 0.43287268 0.2962701 0.019143313 0.34576592 0.2980881 0.5649518 -0.17783768 0.05439694 -0.2975831 0.1998197 -0.17369561 0.3383492 -0.08051967 -0.28414997 0.016690219 0.2087678 -0.039843503 0.063086614 -0.48807102 -0.17670159 -0.41325015 -0.5075159 0.24978954 0.40460265 -0.19953893 -0.3679977 -0.044712964 0.05917695 0.07687973 0.41359454 -0.038033478 -0.032800443 0.45759392 0.44830003 0.31949124 0.19354501 0.13741085 -0.13372594 0.048854064 0.38332462 -0.5609983 -0.18435565 0.17163432 0.26410222 -0.52873296 0.5056306 -0.36216164 0.547794 0.3957284
2158 -0.39928532 -0.15453967 -0.25017813 0.50917935 -0.03522323 -0.05297335 0.054972578 -0.09983627 -0.0664777 0.15639749 0.025858661 -0.2933943 0.18453543 0.19087048 0.17498681 -0.15121514 0.113100395 0.35629037 -0.057470374 -0.1553944 0.6388778 -0.18244284 -0.030578962 0.10650621 -0.5182883 -0.082945995 -0.16282776 0.5005437 0.26212326 0.09991004 0.08345898 0.37787047 -0.016400049 -0.16072479 -0.4654453 -0.018476548 0.02678702 -0.7178835 0.31952995 0.10893402 0.40624514 0.24243592 -0.0716774 -0.34095392 0.22134954 0.18581231 0.20767625 -0.015797678 -0.063398734 -0.19465299 -0.24412656 0.5226043 0.2820356 -0.25178137 -0.19253978 -0.2893882 -0.04685691 -0.24617134 0.34314245 -0.070154235 -0.3713092 -0.11052022 0.22650906 -0.41510895 0.30547625 -0.06911776 -0.26467565 -0.17717746 -0.09381155 -0.14897244 0.22510482 -0.2035373 0.024760079 0.030386863 -0.437758 0.37399086 -0.050102644 -0.3142913 -0.27410248 0.5745695 0.1620994 0.13396825 0.39385647 0.4531717 0.6518766 -0.028280094 -0.010362269 -0.1133085 0.34486207 -0.18041454 0.0856217 0.13573618 -0.38168845 -0.017120255 0.26035568 0.025030151 -0.10206113 -0.5588289 -0.18987638 -0.11958523 -0.079422854 0.14328314 0.3913963 -0.10769129 -0.451377 -0.023273394 0.19535165 -0.1959924 0.10543325 -0.040145475 0.024446694 0.29230154 0.21702957 -0.028263103 0.10928002 0.28552952 -0.10287292 0.062298454 0.03288074 -0.417038 -0.1511603 0.27098414 0.28101265 -0.60343236 -0.09345257 -0.52666247 0.5671862 0.50334644
1624 -0.37048516 -0.43637207 -0.22954988 0.20525013 0.067638695 -0.27401873 -0.18572351 0.055012986 -0.03291847 0.21822552 0.10013975 -0.051367592 -0.124573246 0.8224135 0.17106971 -0.16101564 0.19160675 0.38482407 -0.19212128 0.045076743 0.42928344 0.1919128 0.16556595 0.23230417 -0.29292288 -0.25337467 0.17064072 0.35175124 -0.0012746945 0.16958939 0.057389803 0.103846796 0.4621502 -0.032082435 -0.25621584 -0.097081296 0.17005931 -0.14210987 -0.06841866 0.31341785 0.36983398 0.14714436 -0.07104245 -0.5094335 0.27309287 0.1395319 0.24252278 -0.045195084 0.0026792914 0.00044930735 -0.029167777 0.16571327 0.05670773 -0.37080014 -0.44160363 -0.2550977 0.13734137 -0.5228352 0.2397379 -0.09486001 -0.6381839 -0.20498729 0.40894496 -0.607328 0.3418904 0.21633767 0.08015841 -0.048852783 0.2092919 -0.3334437 0.35603192 0.022865128 -0.043164242 -0.10389707 -0.70220983 0.4524452 -0.12716343 -0.033332355 -0.33524275 0.16199942 0.087163664 -0.04969759 0.36628535 0.26065132 0.50876176 -0.20101637 0.09117638 -0.073326305 0.31146368 -0.23636913 0.12447577 -0.16823028 -0.3350542 0.10907377 0.42673394 -0.16736542 -0.14519335 -0.29991105 -0.30505264 -0.19500476 -0.3668778 0.32095888 0.70595974 -0.113175854 -0.114166886 0.021585906 0.22897118 0.070633456 0.5261943 -0.2200987 -0.13138913 0.2884711 0.45427886 -0.05156876 0.008929938 0.25346673 -0.1759655 -0.26153332 0.0965041 -0.5067679 -0.24703546 0.6134687 0.32130197 -0.5273203 0.48159283 -0.33511508 0.4216036 0.36690438
2165 -0.015369469 0.0228219 -0.364591 0.52945924 0.11308668 0.0021781563 -0.37754685 -0.16478564 0.20921761 -0.11122472 0.2720967 -0.4318355 0.024252035 0.17283113 0.22260693 0.20604073 0.1339386 -0.023905287 -0.43132052 -0.098549515 0.40689215 -0.33748236 -0.115037814 -0.1354589 -0.55442214 0.2165951 0.075312436 0.29497212 0.0885678 0.21489418 0.294577 0.17054181 0.00023566537 0.0045267544 -0.3721021 0.06225762 0.2007251 -0.46239263 0.4673967 0.0030875574 0.28023902 0.40652925 -0.0986153 -0.6115375 0.2544749 0.37806946 0.30324948 -0.38856897 -0.03766675 -0.2040746 -0.32469055 0.5662434 0.043932825 -0.16052373 -0.4461064 -0.44768068 -0.0042322315 -0.2836705 0.2742624 -0.4708392 -0.062459473 -0.2246237 0.19308181 -0.6844328 0.2618608 -0.3029979 -0.39705834 0.432362 -0.08363983 -0.10967792 0.51256156 -0.043212134 -0.24662742 -0.19284749 -0.35799912 0.43966234 0.050529245 -0.3824883 -0.20990811 0.14612725 0.710541 0.42434192 0.476073 0.16759974 0.5874017 -0.08098194 -0.07117421 -0.39704958 0.49778244 -0.30827478 -0.11302234 0.058026258 -0.22918487 -0.2739461 0.45808882 0.066466205 -0.11040829 -0.30589166 -0.15338694 -0.35147107 -0.118294545 0.4745911 0.54053366 -0.19006653 -0.557635 -0.36014584 -0.011338824 -0.43134406 -0.1496565 0.06740546 0.15524876 0.2971536 0.5677573 0.26561862 0.1722602 0.06554978 -0.0016450444 0.3306563 0.06405859 -0.08253995 0.039627865 0.16301413 0.35651836 -0.54057467 0.24124861 -0.533553 0.4258129 0.2313017
2167 -0.1367076 -0.065703385 -0.34242517 0.16952579 0.0063435053 0.09117491 -0.1639696 -0.04228505 0.15234187 0.24018751 0.115096614 -0.46013921 0.16686495 0.32434452 0.35091493 0.022174738 0.11382879 0.19667967 -0.3610484 -0.2213167 0.5712019 -0.091016866 -0.24474998 0.1162315 -0.42177963 -0.04370837 -0.17737712 0.27344587 0.10591048 -0.03059619 0.25180078 0.0941568 -0.08568076 0.097601585 -0.44294164 -0.100762144 0.42484 -0.44341353 -0.042501464 -0.13340606 0.3029828 0.46414447 -0.06411455 -0.49889156 0.14698178 0.28948689 0.19252919 -0.19501175 0.11603749 -0.014868352 -0.4965989 0.4674997 -0.09642666 -0.22777984 -0.53923124 -0.30094108 -0.13563687 -0.15555462 0.36139518 -0.5000965 -0.27289766 -0.12029911 -0.0020608096 -0.7288769 0.17559499 0.07982395 -0.17310813 0.12479292 -0.11605149 0.14533234 0.4475464 -0.1343917 -0.18876074 0.012189825 -0.5128938 0.2019829 -0.05332297 -0.41109467 -0.21491355 0.24753827 0.36080933 0.30812177 0.45730117 0.40286055 0.8620084 0.26127324 -0.19294295 -0.35266346 0.5827473 -0.20603868 -0.011571396 -0.030190988 -0.28450206 -0.13287021 0.25988686 0.30552524 0.0712413 -0.20364596 -0.13515197 -0.40648577 -0.01004651 0.50172263 0.58145183 -0.043613184 -0.7452754 -0.0030415081 0.20698334 -0.32592085 -0.13180992 -0.0856724 0.105365545 0.3286019 0.31787404 0.2763369 0.10698907 0.27094182 -0.027236035 0.3024043 0.18640411 -0.4137442 -0.044910125 0.10842577 0.32000998 -0.3296088 0.29214144 -0.6300091 0.42598894 0.31598544
1631 -0.1977847 -0.51029974 -0.09620851 0.337593 0.08330689 -0.04244011 -0.06081719 0.16424263 0.047699735 0.107077695 -0.03362223 -0.0516538 0.22722813 0.57275707 -0.0011864334 -0.13106549 0.090190604 0.36768183 0.023870997 0.0153931705 0.6693128 -0.029663049 -0.16582474 0.17438455 -0.1573578 -0.17185609 0.26252115 0.25742117 0.14637442 -0.058479544 0.2500745 0.2185935 -0.05820965 -0.04555035 -0.31890932 0.24184754 0.10709478 -0.5433032 0.1915936 -0.09317267 0.23472577 0.08706672 -0.1821001 -0.31538773 0.00974185 -0.09124946 0.22106215 0.10866275 -0.16705585 0.08164453 -0.18258558 0.23752174 0.17697686 -0.31277204 -0.1028718 -0.26529658 0.03322057 -0.38071325 0.016188655 -0.12675183 -0.3837374 -0.20775935 0.14034241 -0.3172523 0.31208995 -0.07407866 -0.109561086 -0.107539736 -0.068526275 -0.31190965 0.2191993 -0.15690234 -0.17536075 -0.0003743818 -0.4707921 0.07526176 -0.15544818 0.117574364 -0.42550266 0.26832032 0.22819078 0.0090416595 0.36384344 0.17713144 0.68169266 -0.24793409 0.17255336 -0.25361228 0.36870122 -0.30397865 0.16168793 -0.0832113 -0.21679115 0.044256512 0.47077483 0.065642536 -0.073901914 -0.5528555 -0.3102958 -0.5063837 -0.5167082 0.2480215 0.64217603 -0.041261576 -0.42481515 -0.07230786 0.2808235 -0.030437531 0.29213113 0.024931567 0.12393567 0.5293916 0.6321401 0.116892315 0.34161064 0.26866722 -0.30109847 -0.21165472 0.3254427 -0.48435777 0.0809374 0.33257532 0.35140702 -0.5240863 0.3022716 -0.29322565 0.51075953 0.24291314
1640 -0.37324 -0.49652585 -0.019207675 0.3280141 -0.32728538 -0.17737734 -0.19487132 0.22186774 0.04805403 0.16274858 -0.029535985 -0.08347866 0.0576233 0.57275426 0.20330688 -0.10797503 0.08783521 0.3199352 -0.2044521 -0.070959605 0.49737182 -0.16377744 0.23993304 0.04040769 -0.25411442 -0.08680791 0.23849653 0.38307762 0.1923161 -0.06634039 0.19743282 0.0107345395 -0.1909779 0.12380727 -0.19679804 0.27854362 0.065485224 -0.20043822 -0.0061215097 0.105245754 0.32052425 -0.07385028 -0.22801676 -0.45246875 0.1599796 -0.0969111 0.108393595 -0.014166463 -0.17062403 -0.24936754 -0.14865552 0.35598853 0.26092818 -0.49591604 -0.30138138 -0.30093402 -0.082376614 -0.46461704 -0.006933638 0.004694746 -0.5609395 -0.18751198 0.1838502 -0.28796825 0.32513142 0.029428152 -0.18368715 -0.24793433 0.08732837 -0.30101714 0.21591519 -0.12062936 -0.04225927 0.025109742 -0.2828935 -0.018038092 -0.23068587 -0.07118033 -0.48648354 0.09861178 0.24821529 0.0022262658 0.38623768 0.3181809 0.6426631 -0.10685555 0.21581315 -0.18015763 0.38595465 -0.2846529 0.38990507 -0.050765768 -0.2448593 0.04372965 0.110908754 0.17279744 -0.06040601 -0.73809725 -0.42348358 -0.27479053 -0.44252157 0.26526752 0.30674303 -0.3930014 -0.25582945 -0.009771495 0.23531067 0.05292238 0.24117534 -0.11411466 -0.03573123 0.59531564 0.5145455 0.084785916 0.29903233 0.45192468 -0.09283022 0.050595883 0.2829056 -0.32760584 -0.07593367 0.17297642 0.12664391 -0.58366793 0.30351081 -0.38098243 0.55440336 0.5693523
1659 -0.38555023 -0.3825411 -0.15980719 0.3198742 0.13067935 -0.20839195 0.07094802 0.23825069 -0.036753614 0.12052452 -0.03280525 -0.11565475 0.16448483 0.60541886 -0.03140901 -0.08947021 0.022932287 0.34253198 0.13579631 -0.29375383 0.3367991 0.03631737 0.06601131 0.20912738 -0.23677164 -0.18874149 0.10868205 0.35322437 0.19831076 -0.14760454 0.033457566 0.072443664 -0.032660797 0.007665137 -0.5646759 0.21361844 0.07890706 -0.38000304 0.06831453 0.021015864 0.31290773 -0.20509142 -0.28752002 -0.21262577 0.16149545 0.09645095 0.15482049 -0.04021148 0.001418013 -0.076371886 -0.27841708 0.33026242 0.17219019 -0.4229029 0.06795888 -0.36515507 0.060824417 -0.4194987 -0.005760388 0.041005403 -0.5974159 0.053802315 -0.043433916 -0.50979793 0.3143845 -0.0400126 -0.11177662 -0.2357315 0.097956784 -0.46737215 0.25529203 0.031532407 -0.07397793 -0.14853881 -0.30743808 0.05546897 -0.05634713 -0.25134948 -0.30270168 0.50883627 0.41884425 0.042080257 0.203551 0.17078154 0.6381089 -0.34790197 0.03294653 -0.17896754 0.19674902 -0.16219997 0.31911424 -0.061469074 -0.4254324 0.0013650979 0.17462698 -0.1086352 -0.06949175 -0.3851929 -0.05369751 -0.47079414 -0.5348305 0.13657272 0.41243005 -0.10397019 -0.38524318 -0.07784908 0.1660791 0.03559368 0.47016138 0.09113589 -0.21076114 0.35116303 0.38649124 0.028628414 0.30324778 0.06922639 -0.33488154 -0.16550581 0.33693478 -0.38454774 -0.10464494 0.24620093 0.37194908 -0.51835054 0.20574015 -0.40078345 0.5870431 0.38227677
1662 -0.20178758 -0.40862668 -0.25610363 0.29602188 0.10712799 0.013530386 -0.025170082 0.08789324 0.10055565 0.18175714 -0.17177711 -0.0066092396 0.20519426 0.70969 0.17596723 -0.054083053 0.13776742 0.38526148 0.06527031 -0.007866513 0.5838759 -0.019699203 -0.03679079 0.2641867 -0.19304325 -0.31945238 -0.05384927 0.2544036 0.10126727 -0.08718805 0.3794923 0.15954314 0.089282095 -0.13359979 -0.36030608 0.21378691 0.2112924 -0.39919958 0.040529545 0.2001748 0.26759386 -0.096087135 -0.12536432 -0.21511628 0.028636115 0.06836565 0.10110525 -0.054584764 -0.15376016 -0.120735824 -0.22185999 0.3410102 0.2439447 -0.26198396 -0.036005583 -0.33231658 0.013678193 -0.4270933 0.1620673 -0.24937178 -0.39327115 -0.029345494 0.03514034 -0.43512157 0.33885986 -0.116538785 0.04298549 -0.11189887 0.22329561 -0.19625852 0.28719103 0.18289818 -0.11630152 -0.11875304 -0.3666346 0.04145392 0.09900554 0.065438814 -0.458658 0.37341574 0.1388535 -0.21457921 0.21011183 0.11135505 0.61314666 -0.18754826 0.16850545 -0.35538596 0.17211233 -0.28865606 0.11165345 -0.053481825 -0.3880928 0.06801524 0.22259611 -0.15775824 -0.0715577 -0.31431106 0.0631251 -0.302606 -0.21011122 0.24675457 0.26423252 -0.17593066 -0.13784382 0.17110582 0.4078011 0.13429828 0.25293136 -0.10120637 0.021563554 0.42327443 0.5135562 0.20557941 0.10914689 0.25268042 -0.20031904 0.024340732 0.24737693 -0.43801177 -0.2034494 0.13918391 0.12246238 -0.3479353 0.30122334 -0.3592843 0.5426547 0.47786078
2280 -0.3220213 -0.0650701 -0.10674222 0.24188685 0.12123403 -0.0915587 -0.019400636 -0.27064165 0.22963952 0.10592625 0.21314377 -0.5004769 0.037497755 0.36006147 0.17210679 -0.034608122 0.12791958 0.2701378 -0.3354266 -0.0957408 0.5461763 -0.17403483 -0.028623842 0.06479895 -0.45894432 0.07637612 -0.22672404 0.40829426 0.10705443 0.03297374 0.12554385 0.28648514 -0.0153512135 -0.023929957 -0.3154798 -0.053306665 0.2636579 -0.48222986 0.1931488 0.14366524 0.4343054 0.42426413 -0.027960142 -0.5476121 0.136419 0.28617823 0.28836143 0.09223005 -0.03695675 -0.28656688 -0.18894883 0.50640166 -0.087408744 -0.20320792 -0.37306154 -0.33081493 0.06841507 -0.3500991 0.27159145 -0.39309892 -0.31304926 -0.20230839 0.0434203 -0.67549294 0.09836665 0.013001735 -0.13077717 0.18759367 -0.06460124 -0.23552652 0.36588115 -0.293321 -0.20859247 -0.08200011 -0.40591487 0.27125263 0.034848962 -0.26080674 -0.44288296 0.39738685 0.5040638 0.28660512 0.45249715 0.2960081 0.7173716 0.15699399 -0.16940556 -0.34719488 0.48165947 -0.16493298 -0.17457166 0.0016618981 -0.2682154 -0.2659083 0.29061872 0.22388132 -0.0650005 -0.3283755 -0.32249624 -0.4127758 0.036836937 0.608073 0.45347637 -0.14258102 -0.62658435 -0.22621632 0.12331982 -0.16578746 0.136721 -0.13045904 0.10306289 0.355096 0.42463002 0.09723417 -0.06228083 0.27453303 0.03890892 -0.11359194 0.123414725 -0.32756835 -0.18873945 0.15853682 0.33571547 -0.551652 0.3494513 -0.53969425 0.48025525 0.29231405
2307 -0.12124418 -0.06988557 -0.22056255 0.23540442 -0.018952584 -0.017856017 -0.1587502 -0.02159209 0.04331707 0.10057335 0.19712436 -0.40919256 0.10543473 0.46839884 0.18652606 0.08953274 0.0194704 0.24664119 -0.3695006 -0.15092829 0.64157295 -0.2473128 -0.11924752 0.14411281 -0.38213748 -0.081199124 -0.12117961 0.42602473 0.14534485 0.027807824 0.23282737 0.073711574 0.022115923 0.16429184 -0.40824705 -0.120614015 0.4640222 -0.59261066 0.23837605 0.08433176 0.43298513 0.47731915 -0.12777738 -0.47738665 -0.002683173 0.45807004 0.28968108 -0.046167064 0.16832063 -0.18788002 -0.46013784 0.48574576 -0.00057509844 -0.16817154 -0.45318297 -0.22353444 0.016972458 -0.1709902 0.15435067 -0.4634187 -0.1252302 -0.18191935 0.20496629 -0.56152636 0.34446988 -0.24970323 -0.19130765 0.120727874 -0.22445562 0.028976398 0.36600634 -0.21067044 -0.0015651028 -0.0055557694 -0.5652195 0.4018611 -0.18765524 -0.39709353 -0.45716256 0.3622745 0.48251155 0.2869962 0.40241337 0.48287365 0.6586216 0.18835618 -0.0040524304 -0.36636674 0.50257146 -0.27002615 0.08584338 0.22667922 -0.3183851 -0.108211845 0.16685623 0.39691624 -0.034692027 -0.20532888 -0.23277469 -0.3351022 -0.14533384 0.49561247 0.5312775 -0.12148241 -0.6772995 0.001845736 -0.10581597 -0.20854081 -0.14131628 -0.10145618 0.19744426 0.4776899 0.4546739 0.342207 0.07533144 0.18818301 -0.095918156 0.13761802 0.11751214 -0.12285757 -0.043692112 0.05612947 0.4538709 -0.55378824 0.28278628 -0.64421934 0.5396134 0.35745737
16 -0.3544368 -0.29451987 -0.4592955 -0.100073546 -0.020269804 -0.23263723 -0.048626248 -0.17098638 0.26813543 -0.4442034 -0.11271076 0.056079745 0.47915033 0.65788597 0.22442865 -0.07342217 -0.45397598 -0.31147525 -0.1540564 0.25779998 0.43493947 -0.014035437 0.40255773 -0.075759284 -0.13501318 -0.25436845 -0.58326274 -0.3405722 0.38980374 0.09221087 -0.23613644 0.22000939 -0.031558562 0.08071564 0.30696937 0.04169615 -0.09851118 -0.13867459 0.28961986 -0.27558523 0.6598353 0.5607307 0.06587537 0.03772507 -0.17227511 0.6063225 -0.15077262 -0.0506568 -0.023296356 -0.15288831 0.007075484 0.15833496 -0.38042676 0.14808491 -0.422298 -0.27100062 0.6756592 0.31229687 -0.11066165 -0.49946263 -0.2853254 -0.02592506 -0.41100302 -0.03241228 0.03898164 0.09207659 -0.027176125 0.49470526 0.12858093 -0.4360057 0.01952443 0.02830331 -0.8368651 -0.3450683 -0.021288112 -0.46480846 0.75335956 -0.042234007 0.24463628 0.2771732 0.15378067 -0.50649095 -0.09658152 -0.037746035 0.45107892 0.20411183 -0.18672769 0.8149981 0.0773302 0.055578694 0.482785 0.008279371 -0.3729126 -0.23371033 0.14822564 0.1998051 -0.1795818 -0.40603796 0.5521056 -0.101964764 0.17344658 0.5097412 0.22674616 0.31693128 0.011025857 0.12266868 0.11516656 0.026448796 -0.47609732 -0.025695276 -0.10634565 0.20189397 -0.069409154 -0.04564914 -0.12188595 0.05696652 -0.0490258 0.16749501 -0.12356399 -0.23760687 -0.12210556 0.25880495 0.054167572 -0.27348495 0.012681211 -0.21540706 -0.19848026 0.35093817
11 -0.60671425 -0.46910012 -0.5480523 0.023843925 -0.12766534 -0.18579857 -0.2508038 -0.12913102 0.19080414 -0.22983776 0.35173732 0.44343287 0.4194974 0.4168706 0.08088979 0.115644164 -0.26224205 -0.5401638 -0.4529494 0.19103318 0.20784418 0.0036960721 0.06529812 -0.025491064 0.21017414 -0.21833223 -0.42423084 -0.44356078 0.2956303 0.27601206 -0.33631226 0.22225057 -0.12748642 0.0074342787 0.48846045 -0.042403903 0.02120537 0.03133419 0.3831366 -0.309123 0.51273036 0.41348517 0.0411603 -0.3162991 -0.35273552 0.5680996 0.029114258 0.16855052 0.07443627 -0.0823823 -0.18876751 0.17440206 0.06179981 0.096127994 -0.60749966 -0.03679673 0.84587294 0.21700092 0.039243564 -0.63314 0.104523666 -0.082749635 -0.34587783 0.0653763 0.408067 0.09347271 -0.10204495 0.40454206 -0.11644849 -0.5520441 -0.07352435 0.06099011 -0.60791564 -0.53267753 -0.14098254 -0.1534043 0.69593966 -0.14926855 -0.04330193 0.56929964 0.3191495 -0.42690125 0.113134675 0.13036336 0.29788172 0.3119897 -0.17077659 0.5128372 0.3115682 -0.11004639 0.5217238 0.10873205 -0.20371264 -0.21835767 0.19469093 0.23880297 -0.12405798 -0.27711785 0.24239336 -0.052060276 0.069053 0.37378508 0.052806266 0.4660943 -0.15627325 -0.14291787 0.3650548 0.026878595 -0.17265636 -0.055767804 -0.2747661 0.14414406 0.17460987 -0.05994115 0.1754756 0.08073112 -0.1163504 0.34922683 -0.3692079 0.026804842 -0.15660772 0.161597 0.27830642 -0.20383462 0.004254142 -0.11436382 0.05479816 0.330871
48 -0.27845514 -0.26084498 -0.3526347 -0.19100256 -0.31520203 0.19178803 0.3056883 -0.18037932 0.15214619 -0.110496655 0.105131485 0.16424581 0.5040001 0.5020719 0.5067464 -0.1745854 -0.1562454 -0.1548732 -0.08852223 0.25417838 0.1326228 0.030621316 0.12298412 -0.16019185 0.0052491915 -0.041849285 -0.73978585 -0.68065894 0.3660785 0.07555632 -0.28755525 0.1887173 0.094775274 0.11333901 0.22974478 -0.021178493 0.07119448 0.2566425 0.533613 -0.2901915 0.2984751 0.5014419 0.16272701 0.04702233 -0.23964219 0.5061826 -0.014924759 -0.038241237 0.388503 -0.18219647 -0.063959815 0.335939 -0.3904048 -0.0813355 -0.4026767 -0.22584486 0.8534621 0.432126 -0.05153603 -0.65277207 -0.13949257 -0.15742774 -0.1659786 -0.044861853 -0.035234235 0.17520514 -0.18423623 0.40925515 0.12571903 -0.5426427 -0.2765356 0.20160715 -0.62931854 -0.3516247 -0.20443875 -0.30907118 0.5400476 -0.026818609 0.0946316 0.30860272 -0.0647123 -0.46656102 -0.2313562 0.17013665 0.6049373 -0.113237195 -0.14506005 0.6222584 0.054614615 -0.07578303 0.64405763 -0.019000396 -0.35348597 -0.06566465 0.184373 -0.03818626 0.027258521 -0.38518974 -0.15011424 -0.1753092 -0.08701621 0.44586226 0.32309347 0.83879614 -0.10816839 -0.023950798 0.2260683 0.14573313 -0.16279902 -0.026790844 -0.17119314 0.36020276 -0.0455466 -0.11117948 -0.091028206 -0.09422362 -0.1492501 0.2917159 -0.31261602 -0.2780185 -0.28064257 0.6495476 0.40179467 -0.30248806 0.24757686 -0.0475939 0.0046585933 0.7908024
68 -0.21778117 -0.33201993 -0.50608367 -0.10275084 -0.0734136 -0.11464489 -0.19370404 -0.21956852 -0.1659902 -0.31370613 0.056300182 0.14583036 0.41861287 0.5075314 0.13303225 -0.07114479 -0.21028554 0.068739586 -0.267832 0.19143942 0.15804616 0.24777308 -0.15654762 -0.25012982 -0.09468657 -0.13835832 -0.5744986 -0.43247983 0.5217192 0.06171543 -0.26709053 0.16159074 0.101556614 0.16639768 0.24849536 0.030046662 -0.10215354 0.113937356 0.55851704 -0.12123711 0.509941 0.16856588 -0.25789943 0.21685672 -0.30342022 0.36874148 0.048967075 -0.31809682 0.24226554 -0.16452287 0.11705149 0.30893916 -0.3989121 0.19969915 -0.57716197 -0.24817118 0.43570766 0.40146372 -0.13505274 -0.51730734 -0.24487339 -0.34048676 -0.4837155 0.057697415 0.1105132 0.14215851 -0.09266298 0.2575295 0.19413792 -0.3300988 -0.14790653 -0.106078856 -0.5635957 -0.5169706 0.028444165 -0.39874652 0.59571815 0.031829353 -0.0472192 0.28143173 0.0052905926 -0.35415173 -0.21332836 0.034304485 0.46667302 0.25073865 -0.20670615 0.63887763 -0.08969476 -0.027100323 0.23755321 -0.12586665 -0.0022837804 -0.03361458 -0.16016154 -0.13845661 -0.1900793 -0.16789383 0.09826887 -0.13299635 -0.07513166 0.56894696 -0.019451838 0.3286869 0.10914613 0.2037184 0.3576841 0.13450447 -0.18632431 -0.24280877 -0.09793091 0.16642404 -0.005120301 -0.16843098 -0.26763007 -0.020639602 -0.2130431 0.14603417 0.03394187 -0.3777278 -0.13397045 0.2608324 0.08616056 -0.22452636 0.45954004 0.10711528 0.25392592 0.54917705
67 -0.20417522 -0.15966974 -0.43120158 -0.055951778 0.035650842 -0.10989369 -0.1008732 -0.11566518 -0.07539005 -0.3730383 -0.07975157 0.044585153 0.6552277 0.69157094 0.39377078 -0.29957306 -0.20587255 -0.040888973 0.013134659 0.13937822 0.53107697 -0.06007298 0.24479553 -0.053762794 -0.092630334 -0.16306242 -0.20968363 -0.56342304 0.41829416 0.39966518 -0.40618548 0.16541465 0.031312115 0.085302375 0.3870437 0.04102661 0.13960558 -0.16141118 0.24580863 -0.3856471 0.5179907 0.41204676 -0.120831475 -0.1416943 -0.21390027 0.26000938 -0.20520513 0.04817145 0.009076956 -0.11386732 -0.10006082 0.47812417 -0.39633828 0.04771526 -0.51235306 -0.2269416 0.74348223 0.40208703 -0.014561385 -0.44389838 -0.28390098 -0.049746398 -0.19433965 -0.06812302 -0.12014204 0.09309676 0.094383895 0.33688354 0.38550654 -0.49266613 -0.14893657 0.16547105 -0.8745671 -0.68197685 0.12509428 -0.06628628 0.50087166 -0.14353247 0.2572949 0.25694627 -0.038540915 -0.4776777 0.0052524973 -0.28454775 0.26934674 0.21267265 -0.08276685 0.78861314 -0.09097774 -0.21994843 0.2609534 -0.12484863 -0.20056136 -0.22095813 0.11867922 -0.01094882 -0.22711322 -0.32903463 0.29906386 0.14977986 -0.07593796 0.4083756 0.13124704 0.19215381 -0.29458243 0.3331676 0.050545685 -0.22129577 -0.016564876 -0.2243425 -0.25301847 0.15680817 -0.011664274 0.025797898 -0.23724395 0.07828078 -0.20287073 0.21110176 -0.0024661117 -0.30386734 -0.24864101 0.1916439 0.3654753 -0.35912108 -0.060429726 -0.2252555 0.09326677 0.66133964
88 0.09241474 -0.22836198 -0.28283525 0.23517136 0.16932645 -0.08302379 -0.073657975 -0.34466204 0.06978858 -0.19023699 -0.0676083 -0.06870869 0.0937039 0.5669501 0.3717547 0.010420185 -0.018130051 -0.5598812 0.0886326 0.07102257 -0.24726878 0.19409774 0.5108267 0.036232606 -0.07045608 -0.1359203 -0.28748977 -0.33351275 0.14362182 0.1577283 0.27305076 -0.033247117 -0.0680132 0.0017762146 0.47962266 -0.024977066 0.048953015 0.04625635 -0.0686931 0.12067277 0.19029467 0.20868915 0.07050538 -0.16033885 -0.44747168 0.48946273 -0.5584059 -0.17085584 -0.36676416 0.2089342 0.07602918 0.09439979 -0.18497936 -0.33776006 -0.32898334 0.2964393 0.20676394 0.03967551 0.25216272 -0.41363227 -0.37490055 -0.22255006 -0.36926097 0.19486707 0.52414256 0.09772569 0.14197956 -0.22802237 0.37360013 -0.23372598 -0.428032 -0.2443061 -0.5442968 -0.502257 -0.45196557 -0.28236982 0.6329646 0.19392689 0.1672503 0.54287124 0.30388686 -0.48798642 -0.020507736 0.0057969033 0.54005754 -0.2683195 0.58223784 0.3923435 -0.011971571 -0.5393604 0.48425636 0.18553844 -0.38462114 0.118687354 0.61916244 -0.122341946 -0.10198688 -0.053936232 0.03256796 0.17405127 -0.1423782 0.5571482 0.33006763 0.46753797 0.14631988 0.65661484 0.21507315 0.01551874 0.117984705 0.2221224 0.081468426 -0.11133874 -0.2344747 0.3694352 0.19957839 0.008048834 -0.27014136 0.02386342 -0.17974667 -0.3495764 -0.04740331 -0.3444126 0.27966538 -0.850609 0.089524716 -0.47498336 -0.48557848 -0.18670419
116 -0.090340704 -0.49382684 -0.18922578 -0.18113641 -0.24685545 -0.36861816 -0.42941076 -0.32532147 -0.041737184 -0.1103934 0.47205648 0.013141534 -0.036450557 0.5808995 0.2956116 -0.14510068 -0.37982765 -0.39814314 -0.3437936 0.3306118 0.2803732 -0.15472347 0.14030461 -0.4185722 -0.101177335 -0.21801071 -0.30625367 -0.2645127 0.45426857 0.5752064 -0.56366557 -0.35301322 -0.17566463 -0.42644227 0.29634026 -0.10399636 0.03666678 -0.06610226 0.34049237 0.26808375 0.32557327 0.07691905 0.083749466 0.048330687 0.44536212 0.73907524 -0.562479 0.03868444 -0.1631546 0.22254574 0.0748804 -0.06177247 -0.08657315 -0.23166016 -0.38321894 0.07773321 0.28207257 -0.3226215 0.22945766 -0.4826456 0.094940856 -0.2144178 -0.5404748 0.0073606707 0.20116049 -0.153434 -0.12731417 0.20702726 0.03575824 -0.31487554 -0.284109 0.05413733 -0.6000266 -0.5218063 0.36631942 0.044284318 0.62129414 -0.292112 -0.15538417 0.20042065 -0.031523515 -0.58734506 0.15249443 -0.19695805 0.42983332 0.1809248 -0.6930182 0.5154875 0.3826848 -0.21198277 0.8010026 -0.1661903 -0.59582055 -0.32916728 0.051480852 0.43447262 -0.15222293 -0.42268807 0.49491268 -0.22236215 0.3742076 0.08002941 -0.15770999 0.2867483 -0.019429626 0.090707906 0.0638057 -0.15339655 -0.29323274 -0.789938 -0.31637496 -0.7214777 -0.011549884 -0.1342211 -0.17018725 0.44759563 -0.48856416 0.20402415 -0.07461367 0.11534697 -0.03840058 0.046071853 0.2972106 -0.03215506 -0.09576323 -0.43110898 0.031812046 0.49850634
119 -0.016882468 -0.28629836 -0.41597077 0.4040205 -0.64310944 -0.11275988 -0.0044690166 -0.31736547 -0.034675393 0.28543103 -0.016126476 -0.36930242 -0.118739314 0.4402212 0.79235935 -0.19650237 0.25854227 -0.10071466 0.27091575 -0.32515424 -0.19101422 0.081326 0.21131654 0.098772846 0.06519249 -0.5072286 0.17760679 0.23931378 0.37688518 -0.028443757 0.16666314 -0.17638016 -0.20852236 -0.07127337 -0.14022444 -0.09224764 -0.119245686 -0.2617084 -0.095321245 0.41620407 0.22747396 0.1924687 0.16841568 -0.32449138 0.37918225 0.4375557 -0.013669379 0.20915225 -0.2573246 0.056107555 -0.10256247 -0.07998051 -0.35049072 0.06997467 -0.4889373 -0.19074562 -0.17771833 -0.105529 -0.15155682 -0.52705353 -0.16679785 0.15493624 0.21720631 0.08427882 0.20202725 -0.044691782 -0.22675483 0.079942994 0.05399736 -0.25993738 -0.04274912 -0.02669659 0.14994115 0.064632095 0.3057872 -0.275722 0.30406415 -0.11864928 -0.20673113 0.42688736 -0.25993073 -0.67888045 -0.5617701 -0.016716745 0.094920635 -0.030556101 0.06819934 -0.043762423 0.4714859 -0.48944205 0.38478443 -0.33054212 -0.43533635 0.18457471 0.20461562 0.50604624 0.5162972 -0.317968 -0.19040738 -0.3135502 0.28902254 0.33146232 0.17971632 -0.21622594 -0.09158442 -0.22700274 -0.36114746 0.0049540056 0.05687013 0.10719075 0.12155983 -0.5157019 -0.23867354 -0.019696923 -0.018987847 -0.26183203 -0.111832164 -0.109851755 0.029818285 0.25897202 -0.25081277 0.3094315 0.015958337 -0.14137837 0.3766564 -0.06868145 0.25296065 0.42424393
493 -0.15790054 -0.43809 -0.40551627 0.35634696 -0.22880025 -0.13866001 -0.009408209 -0.022298126 0.64825714 -0.2581749 -0.055041112 0.15082881 0.48262554 0.021643478 -0.17796272 -0.22416729 -0.12339016 0.07992636 -0.26116145 -0.4749925 0.101786315 -0.28069696 0.035799693 0.3156293 -0.18821909 -0.3744022 0.12249889 0.22860697 0.23256041 -0.042604968 -0.2961927 0.084544644 -0.81512046 0.04816539 0.17737064 0.27364498 -0.11118138 -0.0954777 0.23565733 -0.24934402 0.43030593 0.1375011 0.3060596 -0.07858706 -0.32889566 0.29886946 0.4450737 -0.28490567 -0.085275955 -0.11133872 -0.054723907 -0.09510685 0.16607021 0.16715328 -0.22973792 -0.18866551 0.44472438 0.14605457 0.22918297 -0.4973949 -0.031845987 -0.35708967 -0.07788138 0.14867805 0.4673942 -0.10106065 -0.13471413 0.68874174 -0.39832667 -0.0917234 0.07481515 -0.18623716 -0.042222816 -0.21808542 -0.04397478 0.33128732 0.35750178 0.2399094 -0.17608999 0.28761363 0.18118186 -0.61211336 -0.16238472 -0.01689911 -0.17462312 0.0860963 -0.25947 0.059309825 0.31105316 0.5477045 0.06688963 0.064488865 -0.3237378 0.022533664 0.0031658597 0.18379904 0.29133198 -0.34566766 0.4306677 0.35351628 0.20722069 -0.010076672 0.52758604 -0.067071445 -0.12231121 -0.44493046 0.20076358 -0.22198048 -0.5337554 -0.6502046 0.27584335 -0.06937825 0.23825882 0.32215002 0.55025226 -0.32583332 0.10392054 -0.3357377 -0.10888626 0.11125836 -0.012544521 0.4222987 -0.2784734 -0.20446235 0.13859202 -0.31780347 -0.4336338 -0.277751
167 -0.24988429 -0.32647032 -0.6090114 -0.16576548 -0.33049574 -0.05708108 0.029132186 -0.1292202 -0.03314554 -0.29961982 0.019955244 0.23695384 0.6361048 0.49979654 0.2893773 -0.11670109 -0.12710156 -0.18352668 -0.25077495 0.4161065 0.23397096 -0.075245835 0.03950834 -0.019185716 -0.12040063 -0.2875774 -0.5162074 -0.5055961 0.41193098 0.48885536 -0.46687683 0.18998012 0.14945385 0.05538751 0.25550205 0.07184128 0.18770029 0.0564587 0.31672865 -0.1597611 0.4907446 0.4133934 -0.20592767 -0.24963133 -0.15521862 0.5568237 -0.09419893 -0.044819076 0.010152563 -0.308833 0.030918697 0.10546832 -0.19036204 0.066838905 -0.64771235 -0.14792913 0.67059857 0.25896168 -0.035762582 -0.56110525 -0.23264314 -0.30759674 -0.26519772 -0.08379912 0.055309776 0.09298273 0.015120709 0.32507905 0.22095127 -0.4805161 -0.3748302 0.14158724 -0.8411 -0.42138365 -0.11897113 -0.17076409 0.496143 -0.17413457 -0.06854023 0.2507961 -0.0107872235 -0.45045882 -0.28028145 0.19195578 0.33404532 0.19908382 -0.2058606 0.55091536 0.03882577 -0.3331272 0.47366643 0.15379582 -0.28315887 0.07945797 -0.070485756 0.123555645 -0.38429892 -0.36376873 0.36811218 0.075494096 -0.14787029 0.40528977 0.30864677 0.37441346 -0.047280774 0.059733823 0.08952693 0.09980989 0.04226539 -0.16666703 -0.2010493 0.18388858 -0.04952899 -0.020363173 -0.06289675 0.015516783 -0.11904246 0.30226684 -0.20094326 -0.3529566 -0.30957726 0.4061004 0.46038935 -0.35937753 0.23642506 -0.13947503 -0.095277324 0.66174746
181 -0.20727241 -0.4582619 -0.62228024 -0.324146 -0.13939263 -0.122955956 -0.123508416 -0.22108269 0.115138024 -0.08691779 0.06683009 0.1342647 0.19997339 0.6686382 0.15855531 -0.08220853 -0.47198927 -0.120154396 -0.15513676 0.401322 0.13737622 0.10851594 0.21280691 -0.077085264 -0.15202044 -0.12544835 -0.5226214 -0.3422366 0.28693596 0.4042721 -0.43601114 0.10796188 0.08669334 0.34364 0.10011388 0.23684104 -0.08429895 -0.018808769 0.6834253 -0.13224085 0.51260054 0.24187174 -0.12597325 0.05595736 -0.27707657 0.59500295 0.31573224 0.07874753 -0.022143776 -0.22621305 0.27720624 0.31576014 -0.26203468 -0.0826932 -0.8056255 -0.13088825 0.43599904 0.19743444 -0.22666767 -0.322485 0.11694376 -0.32672164 -0.21248162 0.062259994 0.040980235 -0.11369144 0.07130502 0.7273472 0.2373588 -0.25034246 -0.24665885 0.007340589 -0.8282486 -0.570855 0.20157722 -0.08899683 0.54748666 -0.28194654 0.36387035 -0.028590154 -0.03771875 -0.8008888 -0.23283017 -0.16155167 0.27481788 0.31818166 -0.3561321 0.63495463 0.00951054 -0.26235384 0.3526904 0.028459648 -0.15331379 0.0075499066 0.05616957 -0.12338676 -0.012112654 -0.16832913 0.3135755 -0.27186534 -0.08863794 0.49216425 0.022315983 0.0872371 -0.035015635 -0.09140879 0.16129556 0.10213166 -0.11350203 -0.14671606 -0.023172397 -0.24027553 0.066605896 0.1628072 -0.059214883 0.059687715 -0.130737 0.09082119 0.1488368 -0.3417576 -0.25179633 0.3030166 0.3583343 -0.14230849 0.16231498 -0.051769953 0.30660158 0.6408676
15 -0.15571152 -0.46095756 -0.31068203 0.089442894 -0.1092211 -0.09343219 -0.08464591 -0.0862831 0.06191453 -0.28817767 -0.009169184 -0.027562073 0.25893834 0.29895017 0.09138869 -0.22340396 -0.14413282 -0.18691982 -0.2821151 0.1877006 0.13559134 0.12574506 0.17906938 0.026248783 -0.041892756 -0.33781952 -0.18988054 -0.36833173 0.3221694 0.3869569 -0.40526712 0.094354406 -0.008390155 -0.24810737 0.26327875 -0.07226452 -0.023282686 -0.065773875 0.4002379 0.19006135 0.44358364 0.13821109 -0.09580411 -0.14176616 0.15624127 0.49125865 -0.08797561 -0.052844014 -0.19628005 -0.082560524 0.00057798455 0.029840287 -0.03698093 -0.13960059 -0.3147153 0.06273869 0.45782965 -0.02041504 0.19362932 -0.3329464 -0.10552068 -0.18444559 -0.1573427 0.051701177 0.05035656 -0.06407189 -0.14938411 0.240146 0.08665279 -0.24949281 -0.13799588 -0.07473674 -0.53262395 -0.23993813 -0.052322723 -0.07365471 0.5756226 -0.042567212 0.043731935 0.006946171 0.19036576 -0.4981799 -0.057697583 0.050935965 0.37991026 0.09887732 -0.38845256 0.6906131 0.16043456 -0.3482988 0.3388353 0.08847108 -0.15378986 0.07653683 0.08228055 0.16316327 -0.1412102 -0.21203646 0.24603656 -0.119932994 0.025424603 0.17869532 0.020604799 0.35930324 0.010840272 0.002011783 0.35875174 0.045622952 -0.025825504 0.10039155 -0.07006938 -0.19191572 0.23669867 0.017340345 0.1217674 -0.0058879787 -0.21957812 0.13451885 -0.034698945 -0.16536914 -0.057105538 0.23937969 0.40635645 -0.2723306 -0.09719797 -0.28536642 -0.13782126 0.51299393
64 -0.22242251 -0.5881297 -0.40215737 -0.14987503 -0.19800839 -0.04649904 -0.004322412 -0.32323173 -0.1501713 -0.20305194 0.12879363 0.13986626 0.33317584 0.38467112 0.2832017 -0.23650137 -0.39698783 -0.038884066 -0.35550296 0.274744 0.055046152 -0.0023930839 0.27409837 0.037637457 0.06336585 -0.22784358 -0.21657461 -0.38902545 0.39959595 0.46217558 -0.39794776 -0.052353196 -0.12750748 -0.10008873 0.47694686 -0.0032797744 -0.08732726 0.022116676 0.14630172 0.057979077 0.43147328 0.2461739 0.060935847 -0.22427328 -0.1867126 0.66500473 -0.21061721 0.103445105 0.044234753 0.05584131 0.21175747 0.07640219 -0.21414942 -0.111675136 -0.7060349 0.07769356 0.62476754 0.07049741 0.25907987 -0.33862105 -0.027472205 -0.017718207 -0.40750593 0.04735363 0.28923237 -0.0647341 0.02934735 0.3376843 0.14374276 -0.35731673 -0.18942146 -0.07614786 -0.65367717 -0.5177226 -0.13922389 -0.1305181 0.82610554 -0.023042675 0.16112532 0.018367 0.24807009 -0.57474476 -0.07267984 -0.029568547 0.4378123 0.12089941 -0.4626926 0.5428016 0.012435799 -0.41855124 0.64449793 0.11813815 -0.19443202 -0.020055257 0.023268294 0.08265428 -0.14454287 -0.2569631 0.19469005 -0.06223321 0.035317793 0.244256 0.22584784 0.5517948 0.110663906 0.07287706 0.14886282 0.13978538 -0.019566443 -0.008141325 -0.15332751 -0.36221156 0.06058832 0.02411534 0.27488568 0.0069712535 -0.31422645 0.22199598 -0.14790504 -0.13671158 0.04260732 0.2137941 0.15814896 -0.29409006 0.13316661 -0.1094376 -0.117678724 0.47596046
66 -0.42042476 -0.48549244 -0.57913446 -0.035062607 -0.22473426 -0.13078198 -0.13227104 -0.063023664 0.105329834 -0.09112739 0.05068768 0.15094662 0.15415788 0.3194653 0.19704771 -0.045264862 -0.23901594 -0.24420387 -0.35604885 0.19760072 0.5864541 0.18023169 0.1254748 -0.061314374 0.21640916 -0.22188444 -0.40313727 -0.71411204 0.42687857 0.181865 -0.4332571 0.015898284 0.12517624 0.2723708 0.052398004 0.005653865 0.21077318 -0.036471605 0.26706403 -0.4838203 0.59622014 0.46262705 -0.12339545 -0.10661271 -0.3929865 0.79006004 0.20061669 0.025108287 0.21713792 -0.16625169 0.05866237 0.19861671 -0.23105283 0.01583261 -0.61846066 -0.46034613 0.7851396 -0.025431318 -0.25561598 -0.45141524 0.054001298 -0.22686283 -0.39036867 0.017390579 0.33907953 -0.016367534 -0.1578947 0.52220505 0.045439515 -0.42817295 -0.40858716 0.059783418 -0.6461662 -0.6348338 0.050303467 -0.26773834 0.41410643 -0.04939407 0.0084265685 0.2922972 0.28766426 -0.5595114 -0.11483982 0.12998223 0.43856096 0.35061193 -0.25753888 0.6067588 0.19460908 0.025077049 0.7372023 0.097418405 -0.12741548 -0.17670657 0.14074343 0.20568377 -0.17964092 -0.1845225 0.4077183 -0.13468502 0.1464045 0.29661515 -0.18866919 0.28120524 -0.13756628 -0.15118766 0.0285245 0.32428294 -0.28557536 -0.1442329 -0.3309976 -0.0070511503 0.10516771 -0.08973899 0.21165252 0.09398748 -0.18971749 0.18587762 -0.12579876 -0.33432505 -0.2274192 0.49378282 0.24471593 -0.04524764 0.3559785 -0.16531925 0.04493252 0.5542118
73 -0.23583087 -0.45368513 -0.34107378 -0.28661314 -0.1495276 -0.39394802 -0.26814938 -0.067144886 -0.027381198 0.16912973 0.06497076 0.117067106 0.41615406 0.5167331 0.3640349 -0.05772678 -0.3193667 0.13956843 -0.20832784 0.19280472 0.13066764 0.17550656 0.18295954 -0.12994795 -0.18165681 -0.25051445 -0.34070376 -0.4136026 0.39398143 0.37241963 -0.4908762 -0.018938016 0.014515438 -0.024978735 0.38238257 0.22644122 0.093891196 0.104585424 0.34121072 -0.09303384 0.5959787 0.27342558 0.04322085 -0.09881112 -0.15340023 0.73328197 -0.19047837 0.0119910855 0.025424965 -0.024127206 0.25406373 0.29054993 -0.32436013 -0.033457037 -0.6785784 -0.1501591 0.57615256 0.045139167 -0.05474365 -0.42174897 -0.14307454 -0.3943562 -0.5127869 0.106418125 0.06298059 0.006873839 0.12631682 0.2733369 0.108372174 -0.4370203 -0.25033462 0.10828002 -0.5641566 -0.5134411 0.111198105 -0.09298869 0.61351883 -0.08251712 -0.20616645 0.22220601 -0.06771201 -0.36754695 -0.323806 -0.024044454 0.3551516 0.19755864 -0.42790926 0.6758555 -0.06395821 -0.26208696 0.32438648 -0.0317231 -0.18846937 -0.26056853 0.02125825 -0.04947191 -0.05920139 -0.10476433 0.31078073 0.11383714 -0.0057280255 0.2780128 0.04053181 0.6353144 0.28122577 0.20359248 0.27081686 -0.070931174 0.0132623 -0.17823967 -0.12379254 -0.23412244 0.18876782 -0.19171275 -0.106832184 -0.063052006 -0.061809536 0.39767337 -0.14093736 -0.17343016 -0.07954973 0.4932482 0.21237741 -0.32949844 0.15433767 -0.081287265 0.04380165 0.53551966
